{"learner":{"attributes":{"scikit_learn":"{\"_estimator_type\": \"classifier\"}"},"feature_names":["Have_IP","Have_At","URL_Length","URL_Depth","Redirection","https_Domain","TinyURL","Prefix/Suffix","DNS_Record","Web_Traffic","Domain_Age","Domain_End","iFrame","Mouse_Over","Right_Click","Web_Forwards"],"feature_types":["int","int","int","int","int","int","int","int","int","int","int","int","int","int","int","int"],"gradient_booster":{"model":{"gbtree_model_param":{"num_parallel_tree":"1","num_trees":"100"},"iteration_indptr":[0,1,2,3,4,5,6,7,8,9,10,11,12,13,14,15,16,17,18,19,20,21,22,23,24,25,26,27,28,29,30,31,32,33,34,35,36,37,38,39,40,41,42,43,44,45,46,47,48,49,50,51,52,53,54,55,56,57,58,59,60,61,62,63,64,65,66,67,68,69,70,71,72,73,74,75,76,77,78,79,80,81,82,83,84,85,86,87,88,89,90,91,92,93,94,95,96,97,98,99,100],"tree_info":[0,0,0,0,0,0,0,0,0,0,0,0,0,0,0,0,0,0,0,0,0,0,0,0,0,0,0,0,0,0,0,0,0,0,0,0,0,0,0,0,0,0,0,0,0,0,0,0,0,0,0,0,0,0,0,0,0,0,0,0,0,0,0,0,0,0,0,0,0,0,0,0,0,0,0,0,0,0,0,0,0,0,0,0,0,0,0,0,0,0,0,0,0,0,0,0,0,0,0,0],"trees":[{"base_weights":[-0E0,5.985121E-1,-5.8797735E-1,-7.6620823E-1,5.286822E-1,-1.0531349E0,4.81203E-2,-1.102063E0,1.1428572E0,4.9333337E-1,-1.3177648E-1,-3.3340597E-1,4.4000003E-1,1.5918368E-1,5.3846157E-1,-9.047179E-2,4.131148E-1],"categories":[],"categories_nodes":[],"categories_segments":[],"categories_sizes":[],"default_left":[0,0,0,0,0,0,0,0,0,0,0,0,0,0,0,0,0],"id":0,"left_children":[1,-1,3,5,-1,7,9,11,13,-1,15,-1,-1,-1,-1,-1,-1],"loss_changes":[2.0780376E3,0E0,5.74493E2,2.973736E2,0E0,1.0236572E2,9.570191E1,2.3608643E1,7.430666E0,0E0,7.720907E1,0E0,0E0,0E0,0E0,0E0,0E0],"parents":[2147483647,0,0,2,2,3,3,5,5,6,6,7,7,8,8,10,10],"right_children":[2,-1,4,6,-1,8,10,12,14,-1,16,-1,-1,-1,-1,-1,-1],"split_conditions":[1E0,5.985121E-1,1E0,5E0,5.286822E-1,1E0,1E0,1E0,3E0,4.9333337E-1,1E0,-3.3340597E-1,4.4000003E-1,1.5918368E-1,5.3846157E-1,-9.047179E-2,4.131148E-1],"split_indices":[2,0,7,3,0,1,9,0,3,0,12,0,0,0,0,0,0],"split_type":[0,0,0,0,0,0,0,0,0,0,0,0,0,0,0,0,0],"sum_hessian":[1.7695E3,4.0225E2,1.36725E3,1.2715E3,9.575E1,9.4E2,3.315E2,9.2E2,2E1,3.275E1,2.9875E2,9.1725E2,2.75E0,1.125E1,8.75E0,2.6925E2,2.95E1],"tree_param":{"num_deleted":"0","num_feature":"16","num_nodes":"17","size_leaf_vector":"1"}},{"base_weights":[5.0794794E-3,4.636297E-1,-4.2185047E-1,-5.49545E-1,1.3393856E0,-7.60038E-1,3.7984394E-2,1.1534896E0,4.5824358E-1,-7.9609245E-1,8.665547E-1,3.7376451E-1,-9.1193624E-2,4.148837E-1,9.324592E-1,2.928151E-1,-2.4293579E-1,1.160919E-1,4.2314357E-1,-6.357852E-2,3.0724698E-1,1.0284393E-1,3.5822082E-1],"categories":[],"categories_nodes":[],"categories_segments":[],"categories_sizes":[],"default_left":[0,0,0,0,0,0,0,0,0,0,0,0,0,0,0,0,0,0,0,0,0,0,0],"id":1,"left_children":[1,-1,3,5,7,9,11,13,-1,15,17,-1,19,-1,21,-1,-1,-1,-1,-1,-1,-1,-1],"loss_changes":[1.1190143E3,0E0,3.0037973E2,1.5374942E2,1.3975372E0,5.436078E1,5.1419323E1,1.2224274E0,0E0,2.2529785E1,4.7558756E0,0E0,4.0342976E1,0E0,3.9557838E0,0E0,0E0,0E0,0E0,0E0,0E0,0E0,0E0],"parents":[2147483647,0,0,2,2,3,3,4,4,5,5,6,6,7,7,9,9,10,10,12,12,14,14],"right_children":[2,-1,4,6,8,10,12,14,-1,16,18,-1,20,-1,22,-1,-1,-1,-1,-1,-1,-1,-1],"split_conditions":[1E0,4.636297E-1,1E0,5E0,1E0,1E0,1E0,3E0,4.5824358E-1,1E0,3E0,3.7376451E-1,1E0,4.148837E-1,4E0,2.928151E-1,-2.4293579E-1,1.160919E-1,4.2314357E-1,-6.357852E-2,3.0724698E-1,1.0284393E-1,3.5822082E-1],"split_indices":[2,0,7,3,10,1,9,3,0,3,3,0,12,0,3,0,0,0,0,0,0,0,0],"split_type":[0,0,0,0,0,0,0,0,0,0,0,0,0,0,0,0,0,0,0,0,0,0,0],"sum_hessian":[1.6996138E3,3.6827322E2,1.3313406E3,1.2419814E3,8.935913E1,9.141699E2,3.2781158E2,4.852924E1,4.0829887E1,8.948457E2,1.9324223E1,3.083547E1,2.969761E2,2.1231543E1,2.7297697E1,6.32266E0,8.88523E2,1.1179032E1,8.14519E0,2.686998E2,2.8276308E1,9.099233E0,1.8198465E1],"tree_param":{"num_deleted":"0","num_feature":"16","num_nodes":"23","size_leaf_vector":"1"}},{"base_weights":[1.3095132E-2,4.0240428E-1,-3.101707E-1,-4.0482426E-1,1.1189089E0,-5.664573E-1,3.1922046E-2,9.4319886E-1,3.9182952E-1,-5.939164E-1,6.8805707E-1,1.6920461E-1,-1.0662574E0,3.9005426E-1,7.8380567E-1,-1.8511862E-1,1.5123564E-1,8.5282974E-2,3.628648E-1,2.4352124E-2,5.1921487E-1,-4.2432442E-1,-3.9493077E-2,3.260378E-1,1.5599258E-1],"categories":[],"categories_nodes":[],"categories_segments":[],"categories_sizes":[],"default_left":[0,0,0,0,0,0,0,0,0,0,0,0,0,0,0,0,0,0,0,0,0,0,0,0,0],"id":2,"left_children":[1,-1,3,5,7,9,11,13,-1,15,17,19,21,-1,23,-1,-1,-1,-1,-1,-1,-1,-1,-1,-1],"loss_changes":[6.759991E2,0E0,1.7173329E2,8.390407E1,1.3639679E0,3.0288086E1,4.8714985E1,1.502121E0,0E0,2.1896729E1,3.6658192E0,3.9313824E1,1.1498451E1,0E0,2.084797E0,0E0,0E0,0E0,0E0,0E0,0E0,0E0,0E0,0E0,0E0],"parents":[2147483647,0,0,2,2,3,3,4,4,5,5,6,6,7,7,9,9,10,10,11,11,12,12,14,14],"right_children":[2,-1,4,6,8,10,12,14,-1,16,18,20,22,-1,24,-1,-1,-1,-1,-1,-1,-1,-1,-1,-1],"split_conditions":[1E0,4.0240428E-1,1E0,5E0,1E0,1E0,1E0,1E0,3.9182952E-1,1E0,3E0,1E0,1E0,3.9005426E-1,3E0,-1.8511862E-1,1.5123564E-1,8.5282974E-2,3.628648E-1,2.4352124E-2,5.1921487E-1,-4.2432442E-1,-3.9493077E-2,3.260378E-1,1.5599258E-1],"split_indices":[2,0,7,3,10,1,15,11,0,4,3,6,12,0,3,0,0,0,0,0,0,0,0,0,0],"split_type":[0,0,0,0,0,0,0,0,0,0,0,0,0,0,0,0,0,0,0,0,0,0,0,0,0],"sum_hessian":[1.5723967E3,3.0716223E2,1.2652345E3,1.1873109E3,7.7923546E1,8.663802E2,3.209308E2,4.3309113E1,3.4614433E1,8.483381E2,1.8042103E1,2.860214E2,3.4909393E1,1.1159315E1,3.21498E1,8.31254E2,1.708405E1,1.1039541E1,7.0025625E0,2.7175317E2,1.4268216E1,2.506059E1,9.8488035E0,1.3512524E1,1.8637274E1],"tree_param":{"num_deleted":"0","num_feature":"16","num_nodes":"25","size_leaf_vector":"1"}},{"base_weights":[1.8503355E-2,3.6785585E-1,-2.287606E-1,-2.9936898E-1,9.674285E-1,-3.3197606E-1,1.0358299E0,7.89418E-1,3.586131E-1,-4.4555146E-1,-3.656494E-2,2.091377E-1,4.710506E-1,3.1380093E-1,4.0985107E-1,-9.246055E-2,-1.7831384E-1,1.971341E-2,-3.0559802E-1,3.60322E-1,-5.1347256E-2,6.832321E-2,2.864539E-1],"categories":[],"categories_nodes":[],"categories_segments":[],"categories_sizes":[],"default_left":[0,0,0,0,0,0,0,0,0,0,0,0,0,0,0,0,0,0,0,0,0,0,0],"id":3,"left_children":[1,-1,3,5,7,9,11,13,-1,15,17,19,-1,-1,21,-1,-1,-1,-1,-1,-1,-1,-1],"loss_changes":[4.3294925E2,0E0,1.0193973E2,4.985399E1,1.7879066E0,3.725418E1,1.1754065E1,3.539383E0,0E0,1.6216476E1,3.116181E1,4.6916275E0,0E0,0E0,1.576719E0,0E0,0E0,0E0,0E0,0E0,0E0,0E0,0E0],"parents":[2147483647,0,0,2,2,3,3,4,4,5,5,6,6,7,7,9,9,10,10,11,11,14,14],"right_children":[2,-1,4,6,8,10,12,14,-1,16,18,20,-1,-1,22,-1,-1,-1,-1,-1,-1,-1,-1],"split_conditions":[1E0,3.6785585E-1,1E0,1E0,5E0,5E0,3E0,3E0,3.586131E-1,1E0,1E1,1E0,4.710506E-1,3.1380093E-1,1E0,-9.246055E-2,-1.7831384E-1,1.971341E-2,-3.0559802E-1,3.60322E-1,-5.1347256E-2,6.832321E-2,2.864539E-1],"split_indices":[2,0,7,1,3,3,3,3,0,10,3,9,0,0,10,0,0,0,0,0,0,0,0],"split_type":[0,0,0,0,0,0,0,0,0,0,0,0,0,0,0,0,0,0,0,0,0,0,0],"sum_hessian":[1.4479114E3,2.453955E2,1.2025159E3,1.1361984E3,6.631752E1,1.1098461E3,2.6352335E1,3.974378E1,2.6573742E1,8.012751E2,3.0857095E2,1.0892147E1,1.5460188E1,2.2665943E1,1.7077833E1,4.1830374E2,3.8297134E2,2.8031207E2,2.825887E1,2.4204772E0,8.47167E0,1.3863356E1,3.2144783E0],"tree_param":{"num_deleted":"0","num_feature":"16","num_nodes":"23","size_leaf_vector":"1"}},{"base_weights":[2.2150861E-2,3.4619933E-1,-1.6726209E-1,-2.2000532E-1,8.474731E-1,-1.5934548E-1,-7.5795305E-1,6.586078E-1,3.2616574E-1,-1.9581257E-1,8.3928096E-1,1.0381055E0,-8.415122E-1,3.3121964E-1,4.8235196E-1,-6.665572E-2,2.5505152E-1,-1.2937844E-1,4.3921828E-1,4.2696434E-1,1.2585135E-1,-3.5942656E-1,-1.3813555E-1,3.0088332E-1,9.9576235E-2],"categories":[],"categories_nodes":[],"categories_segments":[],"categories_sizes":[],"default_left":[0,0,0,0,0,0,0,0,0,0,0,0,0,0,0,0,0,0,0,0,0,0,0,0,0],"id":4,"left_children":[1,-1,3,5,7,9,11,13,-1,15,17,19,21,-1,23,-1,-1,-1,-1,-1,-1,-1,-1,-1,-1],"loss_changes":[2.876483E2,0E0,6.170724E1,3.5561527E1,1.8649445E0,3.599649E1,1.7463356E1,2.169961E0,0E0,2.639787E1,2.82989E1,6.803093E-1,1.387574E1,0E0,1.7375584E0,0E0,0E0,0E0,0E0,0E0,0E0,0E0,0E0,0E0,0E0],"parents":[2147483647,0,0,2,2,3,3,4,4,5,5,6,6,7,7,9,9,10,10,11,11,12,12,14,14],"right_children":[2,-1,4,6,8,10,12,14,-1,16,18,20,22,-1,24,-1,-1,-1,-1,-1,-1,-1,-1,-1,-1],"split_conditions":[1E0,3.4619933E-1,1E0,1E0,1E0,1E0,1E0,1E0,3.2616574E-1,1E0,1E0,1E0,1E0,3.3121964E-1,1E0,-6.665572E-2,2.5505152E-1,-1.2937844E-1,4.3921828E-1,4.2696434E-1,1.2585135E-1,-3.5942656E-1,-1.3813555E-1,3.0088332E-1,9.9576235E-2],"split_indices":[2,0,7,15,10,12,9,9,0,1,9,10,12,0,11,0,0,0,0,0,0,0,0,0,0],"split_type":[0,0,0,0,0,0,0,0,0,0,0,0,0,0,0,0,0,0,0,0,0,0,0,0,0],"sum_hessian":[1.3398276E3,1.9134474E2,1.1484829E3,1.0924818E3,5.60011E1,9.829401E2,1.0954168E2,3.3420475E1,2.2580624E1,9.49086E2,3.3854095E1,4.3618784E0,1.051798E2,7.982364E0,2.543811E1,9.2651276E2,2.2573244E1,1.1261872E1,2.2592224E1,1.8866497E0,2.4752288E0,5.3227863E1,5.195194E1,4.432291E0,2.100582E1],"tree_param":{"num_deleted":"0","num_feature":"16","num_nodes":"25","size_leaf_vector":"1"}},{"base_weights":[2.4284605E-2,3.3170313E-1,-1.202195E-1,-1.5970403E-1,7.4218684E-1,-2.9980525E-1,8.589751E-3,5.461996E-1,3.105407E-1,1.0473467E0,-3.1631544E-1,7.264803E-2,-6.059083E-1,2.5501838E-1,1.83128E-1,4.2619115E-1,-1.3656995E-1,-1.0175327E-1,1.3752325E-1,5.970055E-3,3.0084783E-1,-2.9579234E-1,7.459765E-2,2.505843E-1,5.073106E-3],"categories":[],"categories_nodes":[],"categories_segments":[],"categories_sizes":[],"default_left":[0,0,0,0,0,0,0,0,0,0,0,0,0,0,0,0,0,0,0,0,0,0,0,0,0],"id":5,"left_children":[1,-1,3,5,7,9,11,13,-1,15,17,19,21,-1,23,-1,-1,-1,-1,-1,-1,-1,-1,-1,-1],"loss_changes":[1.9617493E2,0E0,3.7832985E1,2.499303E1,2.2287235E0,1.3196445E1,1.9036007E1,3.2947636E0,0E0,4.704866E0,1.0290005E1,2.146165E1,1.5073395E1,0E0,1.6686729E0,0E0,0E0,0E0,0E0,0E0,0E0,0E0,0E0,0E0,0E0],"parents":[2147483647,0,0,2,2,3,3,4,4,5,5,6,6,7,7,9,9,10,10,11,11,12,12,14,14],"right_children":[2,-1,4,6,8,10,12,14,-1,16,18,20,22,-1,24,-1,-1,-1,-1,-1,-1,-1,-1,-1,-1],"split_conditions":[1E0,3.3170313E-1,1E0,4E0,5E0,1E0,1E0,3E0,3.105407E-1,1E0,1E0,1E0,1E0,2.5501838E-1,1E0,4.2619115E-1,-1.3656995E-1,-1.0175327E-1,1.3752325E-1,5.970055E-3,3.0084783E-1,-2.9579234E-1,7.459765E-2,2.505843E-1,5.073106E-3],"split_indices":[2,0,7,3,3,3,15,3,0,12,4,8,12,0,9,0,0,0,0,0,0,0,0,0,0],"split_type":[0,0,0,0,0,0,0,0,0,0,0,0,0,0,0,0,0,0,0,0,0,0,0,0,0],"sum_hessian":[1.2535431E3,1.4697893E2,1.1065642E3,1.0588983E3,4.7665928E1,5.774234E2,4.8147488E2,3.0275583E1,1.7390345E1,6.235079E0,5.711883E2,4.3682037E2,4.4654514E1,1.5751524E1,1.452406E1,5.038007E0,1.1970721E0,5.553618E2,1.5826475E1,4.1434537E2,2.2474997E1,3.0801756E1,1.3852759E1,2.132398E0,1.2391663E1],"tree_param":{"num_deleted":"0","num_feature":"16","num_nodes":"25","size_leaf_vector":"1"}},{"base_weights":[2.3595076E-2,3.2149777E-1,-8.668104E-2,-1.16379194E-1,6.475343E-1,-1.3519593E-1,7.125262E-1,4.4634354E-1,2.8928876E-1,-1.437299E-1,5.187005E-1,6.745015E-2,3.7119335E-1,2.8897768E-1,2.753609E-1,-3.1450644E-2,-1.5795712E-1,-7.500254E-2,3.2556242E-1,3.9460883E-2,2.6680997E-1],"categories":[],"categories_nodes":[],"categories_segments":[],"categories_sizes":[],"default_left":[0,0,0,0,0,0,0,0,0,0,0,0,0,0,0,0,0,0,0,0,0],"id":6,"left_children":[1,-1,3,5,7,9,11,13,-1,15,-1,17,-1,-1,19,-1,-1,-1,-1,-1,-1],"loss_changes":[1.3696045E2,0E0,2.3458921E1,1.618586E1,2.2362537E0,1.6308678E1,7.721879E0,2.1610365E0,0E0,1.4920073E1,0E0,3.9548163E0,0E0,0E0,1.8283484E0,0E0,0E0,0E0,0E0,0E0,0E0],"parents":[2147483647,0,0,2,2,3,3,4,4,5,5,6,6,7,7,9,9,11,11,14,14],"right_children":[2,-1,4,6,8,10,12,14,-1,16,-1,18,-1,-1,20,-1,-1,-1,-1,-1,-1],"split_conditions":[1E0,3.2149777E-1,1E0,1E0,1E0,1E0,3E0,1E0,2.8928876E-1,1E0,5.187005E-1,1E0,3.7119335E-1,2.8897768E-1,1E0,-3.1450644E-2,-1.5795712E-1,-7.500254E-2,3.2556242E-1,3.9460883E-2,2.6680997E-1],"split_indices":[2,0,7,1,10,0,3,11,0,15,0,10,0,0,12,0,0,0,0,0,0],"split_type":[0,0,0,0,0,0,0,0,0,0,0,0,0,0,0,0,0,0,0,0,0],"sum_hessian":[1.1832167E3,1.1181443E2,1.0714023E3,1.0305588E3,4.0843414E1,1.0085021E3,2.205681E1,2.6451717E1,1.4391698E1,1.0048251E3,3.6770115E0,1.0400652E1,1.1656158E1,5.4230537E0,2.1028664E1,9.133014E2,9.1523674E1,8.502811E0,1.8978398E0,1.8021528E1,3.0071356E0],"tree_param":{"num_deleted":"0","num_feature":"16","num_nodes":"21","size_leaf_vector":"1"}},{"base_weights":[2.3620551E-2,3.1395775E-1,-5.9809495E-2,-1.4336012E-1,1.347704E-1,1.753958E-1,-2.0076628E-1,1.007358E0,4.4414517E-2,-4.399319E-1,1.3734843E0,1.1353357E0,-2.1569234E-1,2.5060743E-1,3.618458E-1,1.2656985E-1,-7.570124E-1,-1.4912562E-1,3.3364904E-1,4.794927E-1,-9.122608E-2,4.3748483E-1,-9.4006695E-2,-7.5032316E-2,7.566961E-2,1.4273624E-2,2.7954283E-1,-3.040281E-1,3.0746672E-1],"categories":[],"categories_nodes":[],"categories_segments":[],"categories_sizes":[],"default_left":[0,0,0,0,0,0,0,0,0,0,0,0,0,0,0,0,0,0,0,0,0,0,0,0,0,0,0,0,0],"id":7,"left_children":[1,-1,3,5,7,9,11,13,15,17,19,21,23,-1,-1,25,27,-1,-1,-1,-1,-1,-1,-1,-1,-1,-1,-1,-1],"loss_changes":[9.679227E1,0E0,1.7071898E1,1.3471988E1,2.4839172E1,8.3612366E1,1.2663452E1,3.4599304E-3,1.8995165E1,7.219021E0,1.4987358E1,3.750311E0,9.993847E0,0E0,0E0,1.6570429E1,1.3298545E1,0E0,0E0,0E0,0E0,0E0,0E0,0E0,0E0,0E0,0E0,0E0,0E0],"parents":[2147483647,0,0,2,2,3,3,4,4,5,5,6,6,7,7,8,8,9,9,10,10,11,11,12,12,15,15,16,16],"right_children":[2,-1,4,6,8,10,12,14,16,18,20,22,24,-1,-1,26,28,-1,-1,-1,-1,-1,-1,-1,-1,-1,-1,-1,-1],"split_conditions":[1E0,3.1395775E-1,5E0,1E0,1E0,3E0,1E0,7E0,1E1,1E0,1E0,1E0,1E0,2.5060743E-1,3.618458E-1,8E0,1E0,-1.4912562E-1,3.3364904E-1,4.794927E-1,-9.122608E-2,4.3748483E-1,-9.4006695E-2,-7.5032316E-2,7.566961E-2,1.4273624E-2,2.7954283E-1,-3.040281E-1,3.0746672E-1],"split_indices":[2,0,3,11,9,3,3,3,3,1,10,12,12,0,0,3,10,0,0,0,0,0,0,0,0,0,0,0,0],"split_type":[0,0,0,0,0,0,0,0,0,0,0,0,0,0,0,0,0,0,0,0,0,0,0,0,0,0,0,0,0],"sum_hessian":[1.1324486E3,8.452875E1,1.0479198E3,7.3330804E2,3.146118E2,1.115966E2,6.217114E2,2.856868E1,2.8604312E2,7.4147766E1,3.7448837E1,6.0393195E0,6.156721E2,1.8105585E1,1.0463095E1,2.6021066E2,2.5832468E1,7.216995E1,1.9778118E0,3.3064808E1,4.384029E0,4.933015E0,1.1063044E0,5.739259E2,4.1746185E1,2.3792969E2,2.2280964E1,2.2959831E1,2.8726385E0],"tree_param":{"num_deleted":"0","num_feature":"16","num_nodes":"29","size_leaf_vector":"1"}},{"base_weights":[2.0568706E-2,3.080699E-1,-4.3000773E-2,-6.472918E-2,5.5562526E-1,-3.3452746E-2,-3.9011526E-1,3.667657E-1,2.7408603E-1,-6.672703E-2,4.278787E-1,9.71088E-1,-4.7038886E-1,2.0698014E-1,5.841029E-2,-2.7313033E-2,1.7583604E-1,5.2306827E-2,5.31851E-1,3.5098526E-1,7.439377E-2,-2.4485825E-1,-5.548254E-2,-2.4633236E-2,2.063445E-1],"categories":[],"categories_nodes":[],"categories_segments":[],"categories_sizes":[],"default_left":[0,0,0,0,0,0,0,0,0,0,0,0,0,0,0,0,0,0,0,0,0,0,0,0,0],"id":8,"left_children":[1,-1,3,5,7,9,11,13,-1,15,17,19,21,-1,23,-1,-1,-1,-1,-1,-1,-1,-1,-1,-1],"loss_changes":[6.9603745E1,0E0,1.3351409E1,1.0049261E1,2.0962133E0,1.3891997E1,9.920624E0,2.4720736E0,0E0,1.34396515E1,2.0453777E1,4.50377E-1,7.9887123E0,0E0,1.2941777E0,0E0,0E0,0E0,0E0,0E0,0E0,0E0,0E0,0E0,0E0],"parents":[2147483647,0,0,2,2,3,3,4,4,5,5,6,6,7,7,9,9,10,10,11,11,12,12,14,14],"right_children":[2,-1,4,6,8,10,12,14,-1,16,18,20,22,-1,24,-1,-1,-1,-1,-1,-1,-1,-1,-1,-1],"split_conditions":[1E0,3.080699E-1,1E0,1E0,5E0,1E0,1E0,3E0,2.7408603E-1,1E0,1E0,1E0,1E0,2.0698014E-1,1E0,-2.7313033E-2,1.7583604E-1,5.2306827E-2,5.31851E-1,3.5098526E-1,7.439377E-2,-2.4485825E-1,-5.548254E-2,-2.4633236E-2,2.063445E-1],"split_indices":[2,0,7,15,3,6,9,3,0,12,8,8,12,0,10,0,0,0,0,0,0,0,0,0,0],"split_type":[0,0,0,0,0,0,0,0,0,0,0,0,0,0,0,0,0,0,0,0,0,0,0,0,0],"sum_hessian":[1.0863453E3,6.364618E1,1.0226991E3,9.877389E2,3.496021E1,9.0212823E2,8.561065E1,2.421181E1,1.0748398E1,8.4223596E2,5.989228E1,4.1495376E0,8.146111E1,1.1217735E1,1.2994074E1,8.128216E2,2.941439E1,5.1343704E1,8.548577E0,2.7698522E0,1.3796853E0,3.5995255E1,4.5465855E1,1.1333333E1,1.6607411E0],"tree_param":{"num_deleted":"0","num_feature":"16","num_nodes":"25","size_leaf_vector":"1"}},{"base_weights":[1.8915119E-2,3.031469E-1,-2.9252198E-2,-4.4251587E-2,6.3989025E-1,-5.0787188E-2,4.0871972E-1,1.1009136E-1,3.365838E-1,-1.077419E-1,8.25091E-2,3.048369E-1,-2.1126278E-1,1.1177781E-3,-7.216005E-2,2.5236043E-1,4.027147E-3,-1.7962316E-1,2.809391E-1],"categories":[],"categories_nodes":[],"categories_segments":[],"categories_sizes":[],"default_left":[0,0,0,0,0,0,0,0,0,0,0,0,0,0,0,0,0,0,0],"id":9,"left_children":[1,-1,3,5,7,9,-1,11,-1,13,15,-1,17,-1,-1,-1,-1,-1,-1],"loss_changes":[5.032454E1,0E0,1.0117569E1,9.116593E0,5.5216303E0,7.453018E0,0E0,3.603513E0,0E0,1.0176295E1,1.540419E1,0E0,4.749863E0,0E0,0E0,0E0,0E0,0E0,0E0],"parents":[2147483647,0,0,2,2,3,3,4,4,5,5,7,7,9,9,10,10,12,12],"right_children":[2,-1,4,6,8,10,-1,12,-1,14,16,-1,18,-1,-1,-1,-1,-1,-1],"split_conditions":[1E0,3.031469E-1,1E0,1E0,3E0,5E0,4.0871972E-1,1E0,3.365838E-1,1E0,1E0,3.048369E-1,1E0,1.1177781E-3,-7.216005E-2,2.5236043E-1,4.027147E-3,-1.7962316E-1,2.809391E-1],"split_indices":[2,0,1,0,3,3,0,9,0,10,9,0,10,0,0,0,0,0,0],"split_type":[0,0,0,0,0,0,0,0,0,0,0,0,0,0,0,0,0,0,0],"sum_hessian":[1.0520448E3,4.781173E1,1.0042331E3,9.831293E2,2.1103804E1,9.7954205E2,3.5872664E0,1.0639233E1,1.0464571E1,6.8643463E2,2.9310742E2,2.219508E0,8.419724E0,3.7370847E2,3.1272617E2,2.3529621E1,2.695778E2,6.6522098E0,1.7675145E0],"tree_param":{"num_deleted":"0","num_feature":"16","num_nodes":"19","size_leaf_vector":"1"}},{"base_weights":[1.7565412E-2,2.9868218E-1,-1.8965552E-2,-3.4766342E-2,4.643711E-1,-2.1688158E-2,-5.1194596E-1,2.798428E-1,8.4735024E-1,-4.1454405E-2,7.156393E-1,3.73966E-1,-7.831362E-1,2.6440847E-1,1.1115131E-1,3.3463642E-2,2.811075E-1,-4.517731E-3,-9.757155E-2,2.4656864E-1,-2.0910552E-1,-2.9027313E-1,1.6400702E-1,-3.0427838E-3,2.2434284E-1],"categories":[],"categories_nodes":[],"categories_segments":[],"categories_sizes":[],"default_left":[0,0,0,0,0,0,0,0,0,0,0,0,0,0,0,0,0,0,0,0,0,0,0,0,0],"id":10,"left_children":[1,-1,3,5,7,9,11,13,15,17,19,-1,21,-1,23,-1,-1,-1,-1,-1,-1,-1,-1,-1,-1],"loss_changes":[3.659764E1,0E0,7.560893E0,5.964714E0,1.9779038E0,1.3628333E1,1.3136805E1,2.1998258E0,5.3539896E-1,6.8088903E0,4.237693E0,0E0,6.098402E0,0E0,1.4616454E0,0E0,0E0,0E0,0E0,0E0,0E0,0E0,0E0,0E0,0E0],"parents":[2147483647,0,0,2,2,3,3,4,4,5,5,6,6,7,7,8,8,9,9,10,10,12,12,14,14],"right_children":[2,-1,4,6,8,10,12,14,16,18,20,-1,22,-1,24,-1,-1,-1,-1,-1,-1,-1,-1,-1,-1],"split_conditions":[1E0,2.9868218E-1,1E0,1E1,1E0,8E0,1E0,1E0,1E0,1E0,1E0,3.73966E-1,1E0,2.6440847E-1,1E0,3.3463642E-2,2.811075E-1,-4.517731E-3,-9.757155E-2,2.4656864E-1,-2.0910552E-1,-2.9027313E-1,1.6400702E-1,-3.0427838E-3,2.2434284E-1],"split_indices":[2,0,7,3,10,3,11,9,9,15,4,0,10,0,12,0,0,0,0,0,0,0,0,0,0],"split_type":[0,0,0,0,0,0,0,0,0,0,0,0,0,0,0,0,0,0,0,0,0,0,0,0,0],"sum_hessian":[1.02278894E3,3.5881496E1,9.869074E2,9.565644E2,3.034304E1,9.320645E2,2.4499882E1,2.1644781E1,8.698259E0,9.0864923E2,2.3415258E1,2.7929225E0,2.1706959E1,3.8153486E0,1.7829432E1,1.1886832E0,7.5095763E0,8.322895E2,7.635978E1,2.2166174E1,1.2490846E0,1.9302229E1,2.4047287E0,1.5802805E1,2.026627E0],"tree_param":{"num_deleted":"0","num_feature":"16","num_nodes":"25","size_leaf_vector":"1"}},{"base_weights":[1.5250563E-2,2.9427123E-1,-1.2387419E-2,-2.4180153E-2,5.6684947E-1,-2.9343883E-2,3.4393674E-1,1.3048644E-1,3.130535E-1,7.400831E-1,-3.575494E-2,3.1245E-1,-1.5410532E-1,-7.567863E-3,2.935544E-1,-1.7004387E-2,6.3307375E-2,2.6251754E-1,-1.5086403E-1],"categories":[],"categories_nodes":[],"categories_segments":[],"categories_sizes":[],"default_left":[0,0,0,0,0,0,0,0,0,0,0,0,0,0,0,0,0,0,0],"id":11,"left_children":[1,-1,3,5,7,9,-1,11,-1,13,15,-1,17,-1,-1,-1,-1,-1,-1],"loss_changes":[2.6792974E1,0E0,6.6840935E0,5.8245606E0,3.9250426E0,4.736146E0,0E0,3.0996654E0,0E0,1.472734E0,4.9067135E0,0E0,3.8533125E0,0E0,0E0,0E0,0E0,0E0,0E0],"parents":[2147483647,0,0,2,2,3,3,4,4,5,5,7,7,9,9,10,10,12,12],"right_children":[2,-1,4,6,8,10,-1,12,-1,14,16,-1,18,-1,-1,-1,-1,-1,-1],"split_conditions":[1E0,2.9427123E-1,1E0,1E0,3E0,1E0,3.4393674E-1,1E0,3.130535E-1,1E0,1E0,3.1245E-1,1E0,-7.567863E-3,2.935544E-1,-1.7004387E-2,6.3307375E-2,2.6251754E-1,-1.5086403E-1],"split_indices":[2,0,1,0,3,3,0,11,0,11,12,0,9,0,0,0,0,0,0],"split_type":[0,0,0,0,0,0,0,0,0,0,0,0,0,0,0,0,0,0,0],"sum_hessian":[1.0024513E3,2.6933146E1,9.755181E2,9.5699286E2,1.8525246E1,9.5376074E2,3.2321486E0,1.0336442E1,8.188804E0,6.935656E0,9.468251E2,1.8273238E0,8.509118E0,1.8599265E0,5.0757294E0,8.7352264E2,7.330244E1,1.7718364E0,6.7372813E0],"tree_param":{"num_deleted":"0","num_feature":"16","num_nodes":"19","size_leaf_vector":"1"}},{"base_weights":[1.3986914E-2,2.8956744E-1,-6.878995E-3,1.7447051E-1,-3.377651E-2,4.9764115E-1,-2.7472743E-1,-5.7517134E-2,2.5700614E-1,9.23281E-1,1.0984132E-1,-6.7578846E-1,5.092571E-1,-3.4793902E-2,-6.4133495E-1,-3.2114604E-1,7.225259E-1,-6.218485E-2,5.4488975E-1,4.0645602E-1,-7.7986196E-2,-2.1322016E-1,5.7104528E-2,5.831096E-2,4.4053686E-1,-1.8369773E-2,8.357982E-2,-2.5641346E-1,-1.487646E-2,-1.7787549E-1,1.1296679E-1,2.7663514E-1,-3.9562643E-1],"categories":[],"categories_nodes":[],"categories_segments":[],"categories_sizes":[],"default_left":[0,0,0,0,0,0,0,0,0,0,0,0,0,0,0,0,0,0,0,0,0,0,0,0,0,0,0,0,0,0,0,0,0],"id":12,"left_children":[1,-1,3,5,7,9,11,13,15,17,19,21,23,25,27,29,31,-1,-1,-1,-1,-1,-1,-1,-1,-1,-1,-1,-1,-1,-1,-1,-1],"loss_changes":[1.964315E1,0E0,4.7329206E0,1.8330582E1,5.846396E0,1.198876E1,1.7035213E1,1.0349277E1,1.744246E1,3.5495113E1,1.8520294E1,1.2112484E0,5.3131375E0,6.2609353E0,3.648573E0,5.7628317E0,1.5773642E1,0E0,0E0,0E0,0E0,0E0,0E0,0E0,0E0,0E0,0E0,0E0,0E0,0E0,0E0,0E0,0E0],"parents":[2147483647,0,0,2,2,3,3,4,4,5,5,6,6,7,7,8,8,9,9,10,10,11,11,12,12,13,13,14,14,15,15,16,16],"right_children":[2,-1,4,6,8,10,12,14,16,18,20,22,24,26,28,30,32,-1,-1,-1,-1,-1,-1,-1,-1,-1,-1,-1,-1,-1,-1,-1,-1],"split_conditions":[1E0,2.8956744E-1,1E0,1E0,1E0,4E0,3E0,1E0,3E0,2E0,1E0,1E0,1E0,1E0,6E0,1E0,1E0,-6.218485E-2,5.4488975E-1,4.0645602E-1,-7.7986196E-2,-2.1322016E-1,5.7104528E-2,5.831096E-2,4.4053686E-1,-1.8369773E-2,8.357982E-2,-2.5641346E-1,-1.487646E-2,-1.7787549E-1,1.1296679E-1,2.7663514E-1,-3.9562643E-1],"split_indices":[2,0,9,10,12,3,3,15,3,3,11,15,8,6,3,10,6,0,0,0,0,0,0,0,0,0,0,0,0,0,0,0,0],"split_type":[0,0,0,0,0,0,0,0,0,0,0,0,0,0,0,0,0,0,0,0,0,0,0,0,0,0,0,0,0,0,0,0,0],"sum_hessian":[9.883225E2,2.0242579E1,9.680799E2,1.24330086E2,8.437498E2,7.224579E1,5.20843E1,7.8080414E2,6.2945683E1,3.3784218E1,3.8461575E1,3.4548447E1,1.7535854E1,7.5257227E2,2.823186E1,2.8214645E1,3.4731037E1,1.5248036E1,1.853618E1,8.197789E0,3.0263784E1,3.3381065E1,1.1673805E0,1.4107322E1,3.4285333E0,6.947648E2,5.780754E1,2.0423141E1,7.8087177E0,2.041333E1,7.801315E0,3.2137028E1,2.5940108E0],"tree_param":{"num_deleted":"0","num_feature":"16","num_nodes":"33","size_leaf_vector":"1"}},{"base_weights":[1.0503817E-2,2.8425986E-1,-5.4395986E-3,-1.4379674E-2,4.8837018E-1,-1.8480206E-2,3.0049616E-1,1.06729165E-1,2.9315713E-1,-8.800932E-3,-4.1184163E-1,2.7448824E-1,-1.3705733E-1,-6.4339996E-3,1.5392259E-1,2.8750497E-1,-1.935504E-1,-1.4386305E-1,2.6323667E-1],"categories":[],"categories_nodes":[],"categories_segments":[],"categories_sizes":[],"default_left":[0,0,0,0,0,0,0,0,0,0,0,0,0,0,0,0,0,0,0],"id":13,"left_children":[1,-1,3,5,7,9,-1,11,-1,13,15,-1,17,-1,-1,-1,-1,-1,-1],"loss_changes":[1.4511476E1,0E0,4.226402E0,3.9337003E0,3.0716386E0,3.5637214E0,0E0,2.2302997E0,0E0,6.052578E0,7.804969E0,0E0,3.5746338E0,0E0,0E0,0E0,0E0,0E0,0E0],"parents":[2147483647,0,0,2,2,3,3,4,4,5,5,7,7,9,9,10,10,12,12],"right_children":[2,-1,4,6,8,10,-1,12,-1,14,16,-1,18,-1,-1,-1,-1,-1,-1],"split_conditions":[1E0,2.8425986E-1,1E0,1E0,3E0,1E1,3.0049616E-1,1E0,2.9315713E-1,8E0,1E0,2.7448824E-1,1E0,-6.4339996E-3,1.5392259E-1,2.8750497E-1,-1.935504E-1,-1.4386305E-1,2.6323667E-1],"split_indices":[2,0,1,0,3,3,0,11,0,3,11,0,10,0,0,0,0,0,0],"split_type":[0,0,0,0,0,0,0,0,0,0,0,0,0,0,0,0,0,0,0],"sum_hessian":[9.700083E2,1.5250868E1,9.547574E2,9.387332E2,1.6024216E1,9.3593774E2,2.7954679E0,9.68281E0,6.341407E0,9.1445844E2,2.1479305E1,1.6058315E0,8.076978E0,8.937604E2,2.0698055E1,2.6732876E0,1.8806019E1,6.4327E0,1.6442779E0],"tree_param":{"num_deleted":"0","num_feature":"16","num_nodes":"19","size_leaf_vector":"1"}},{"base_weights":[9.813737E-3,2.780686E-1,-2.3046748E-3,-1.3489109E-2,3.7403595E-1,5.248661E-3,-2.3353238E-1,2.0404321E-1,2.3702256E-1,-1.2576092E-2,2.4254364E-1,-2.4179275E-1,-3.1994328E-2,1.5828684E-1,-4.3703448E-2,-7.397857E-3,1.6531964E-1,1.79714E-2,4.2648348E-1,-5.1069338E-2,4.2372265E-1,1.6795123E-1,-4.320792E-2],"categories":[],"categories_nodes":[],"categories_segments":[],"categories_sizes":[],"default_left":[0,0,0,0,0,0,0,0,0,0,0,0,0,0,0,0,0,0,0,0,0,0,0],"id":14,"left_children":[1,-1,3,5,7,9,11,13,-1,15,17,-1,19,-1,21,-1,-1,-1,-1,-1,-1,-1,-1],"loss_changes":[1.0679129E1,0E0,4.000313E0,3.8058562E0,1.7786982E0,3.6039088E0,8.330745E0,1.6921916E0,0E0,5.4130797E0,1.2734174E1,0E0,1.1145076E1,0E0,8.505614E-1,0E0,0E0,0E0,0E0,0E0,0E0,0E0,0E0],"parents":[2147483647,0,0,2,2,3,3,4,4,5,5,6,6,7,7,9,9,10,10,12,12,14,14],"right_children":[2,-1,4,6,8,10,12,14,-1,16,18,-1,20,-1,22,-1,-1,-1,-1,-1,-1,-1,-1],"split_conditions":[1E0,2.780686E-1,1E0,1E0,5E0,1E0,1E0,3E0,2.3702256E-1,1E0,1E0,-2.4179275E-1,6E0,1.5828684E-1,1E0,-7.397857E-3,1.6531964E-1,1.79714E-2,4.2648348E-1,-5.1069338E-2,4.2372265E-1,1.6795123E-1,-4.320792E-2],"split_indices":[2,0,7,15,3,6,11,3,0,4,8,0,3,0,9,0,0,0,0,0,0,0,0],"split_type":[0,0,0,0,0,0,0,0,0,0,0,0,0,0,0,0,0,0,0,0,0,0,0],"sum_hessian":[9.5971655E2,1.1531924E1,9.4818463E2,9.217552E2,2.6429405E1,8.503222E2,7.143299E1,1.982102E1,6.608385E0,7.917926E2,5.8529636E1,1.7819584E1,5.3613403E1,8.105204E0,1.17158165E1,7.761105E2,1.568212E1,5.158922E1,6.940422E0,4.9735596E1,3.8778074E0,1.0170305E0,1.0698786E1],"tree_param":{"num_deleted":"0","num_feature":"16","num_nodes":"23","size_leaf_vector":"1"}},{"base_weights":[8.797896E-3,2.7075514E-1,-4.724601E-4,-3.841886E-2,9.031603E-2,1.7111023E-1,-7.712973E-2,6.2524354E-1,5.1108856E-2,-2.540626E-1,7.985786E-1,4.6008036E-2,-1.7251611E-1,4.557641E-1,8.677609E-1,-1.7326726E-1,1.4826408E-1,-3.9598446E-2,-2.4956127E-1,2.693317E-1,-4.7633346E-2,1.8195398E-3,1.8630105E-1,-6.028972E-2,1.5386558E-1,8.139585E-2,1.9591245E-1,2.94374E-1,6.476073E-2,1.8308356E-1,-1.6115122E-1,6.631031E-2,-1.575746E-1],"categories":[],"categories_nodes":[],"categories_segments":[],"categories_sizes":[],"default_left":[0,0,0,0,0,0,0,0,0,0,0,0,0,0,0,0,0,0,0,0,0,0,0,0,0,0,0,0,0,0,0,0,0],"id":15,"left_children":[1,-1,3,5,7,9,11,13,15,17,19,21,23,25,27,29,31,-1,-1,-1,-1,-1,-1,-1,-1,-1,-1,-1,-1,-1,-1,-1,-1],"loss_changes":[7.879094E0,0E0,3.2493758E0,5.4083614E0,5.7989473E0,2.7958124E1,6.610469E0,3.811922E-1,5.6961884E0,4.317757E0,4.1559944E0,5.6497545E0,6.2837305E0,3.0419803E-1,2.8141737E-1,2.2870853E1,9.039265E0,0E0,0E0,0E0,0E0,0E0,0E0,0E0,0E0,0E0,0E0,0E0,0E0,0E0,0E0,0E0,0E0],"parents":[2147483647,0,0,2,2,3,3,4,4,5,5,6,6,7,7,8,8,9,9,10,10,11,11,12,12,13,13,14,14,15,15,16,16],"right_children":[2,-1,4,6,8,10,12,14,16,18,20,22,24,26,28,30,32,-1,-1,-1,-1,-1,-1,-1,-1,-1,-1,-1,-1,-1,-1,-1,-1],"split_conditions":[1E0,2.7075514E-1,5E0,1E0,1E0,3E0,3E0,7E0,1E0,1E0,1E0,1E0,1E0,1E0,1E0,6E0,1E1,-3.9598446E-2,-2.4956127E-1,2.693317E-1,-4.7633346E-2,1.8195398E-3,1.8630105E-1,-6.028972E-2,1.5386558E-1,8.139585E-2,1.9591245E-1,2.94374E-1,6.476073E-2,1.8308356E-1,-1.6115122E-1,6.631031E-2,-1.575746E-1],"split_indices":[2,0,3,11,9,3,3,3,11,10,10,6,13,10,10,3,3,0,0,0,0,0,0,0,0,0,0,0,0,0,0,0,0],"split_type":[0,0,0,0,0,0,0,0,0,0,0,0,0,0,0,0,0,0,0,0,0,0,0,0,0,0,0,0,0,0,0,0,0],"sum_hessian":[9.4994476E2,8.763202E0,9.411815E2,6.64162E2,2.7701956E2,1.0303695E2,5.6112506E2,1.78967E1,2.5912286E2,6.1773975E1,4.1262974E1,2.4515857E2,3.159665E2,1.2229565E1,5.667135E0,7.8060905E1,1.8106195E2,5.201395E1,9.760027E0,3.7445415E1,3.8175573E0,2.3017937E2,1.4979198E1,3.0405267E2,1.1913817E1,7.547935E0,4.6816297E0,4.3965282E0,1.2706065E0,2.4541613E1,5.351929E1,1.6401286E2,1.7049093E1],"tree_param":{"num_deleted":"0","num_feature":"16","num_nodes":"33","size_leaf_vector":"1"}},{"base_weights":[6.8305936E-3,2.6214507E-1,-3.586015E-4,-7.5047524E-3,4.3297368E-1,6.1710507E-1,-1.2546871E-2,1.2099199E-1,2.7406323E-1,7.979813E-1,-6.389725E-2,-1.5940975E-2,2.6975206E-1,2.6225573E-1,-1.0414917E-1,1.0372991E-4,3.3512652E-1,9.456217E-3,-2.509862E-2,2.407974E-1,-1.0880861E-1],"categories":[],"categories_nodes":[],"categories_segments":[],"categories_sizes":[],"default_left":[0,0,0,0,0,0,0,0,0,0,0,0,0,0,0,0,0,0,0,0,0],"id":16,"left_children":[1,-1,3,5,7,9,11,13,-1,15,-1,17,-1,-1,19,-1,-1,-1,-1,-1,-1],"loss_changes":[5.837262E0,0E0,2.8824196E0,2.8915007E0,2.1535807E0,1.273884E0,2.8281798E0,1.8392624E0,0E0,1.589829E0,0E0,2.917632E0,0E0,0E0,2.3614395E0,0E0,0E0,0E0,0E0,0E0,0E0],"parents":[2147483647,0,0,2,2,3,3,4,4,5,5,6,6,7,7,9,9,11,11,14,14],"right_children":[2,-1,4,6,8,10,12,14,-1,16,-1,18,-1,-1,20,-1,-1,-1,-1,-1,-1],"split_conditions":[1E0,2.6214507E-1,1E0,1E0,3E0,1E0,1E0,2E0,2.7406323E-1,1E0,-6.389725E-2,1E0,2.6975206E-1,2.6225573E-1,1E0,1.0372991E-4,3.3512652E-1,9.456217E-3,-2.509862E-2,2.407974E-1,-1.0880861E-1],"split_indices":[2,0,1,3,3,12,0,3,0,11,0,10,0,0,11,0,0,0,0,0,0],"split_type":[0,0,0,0,0,0,0,0,0,0,0,0,0,0,0,0,0,0,0,0,0],"sum_hessian":[9.354689E2,6.7019043E0,9.2876697E2,9.146658E2,1.4101216E1,6.3523836E0,9.083134E2,9.309406E0,4.79181E0,5.2476244E0,1.1047596E0,9.059234E2,2.3900075E0,1.478927E0,7.830479E0,1.785556E0,3.4620683E0,5.3294696E2,3.729764E2,1.2703689E0,6.5601106E0],"tree_param":{"num_deleted":"0","num_feature":"16","num_nodes":"21","size_leaf_vector":"1"}},{"base_weights":[6.8788524E-3,2.5216177E-1,1.3158196E-3,-6.9957376E-3,3.0541185E-1,8.960054E-3,-1.9968899E-1,1.4797115E-1,7.255149E-1,1.2150501E-2,-2.5044993E-1,-9.147639E-2,-3.2069677E-1,2.1840264E-1,2.9317169E-2,8.807187E-2,2.4589361E-1,1.9324658E-3,4.4438314E-1,-5.2328635E-2,1.7335264E-1,1.8762435E-1,-1.906928E-2],"categories":[],"categories_nodes":[],"categories_segments":[],"categories_sizes":[],"default_left":[0,0,0,0,0,0,0,0,0,0,0,0,0,0,0,0,0,0,0,0,0,0,0],"id":17,"left_children":[1,-1,3,5,7,9,11,13,15,17,-1,19,-1,-1,21,-1,-1,-1,-1,-1,-1,-1,-1],"loss_changes":[4.314193E0,0E0,2.3408933E0,2.7740693E0,1.5223927E0,2.2544842E0,6.392624E0,1.2986648E0,2.2066116E-2,6.9646297E0,0E0,3.568208E0,0E0,0E0,9.790094E-1,0E0,0E0,0E0,0E0,0E0,0E0,0E0,0E0],"parents":[2147483647,0,0,2,2,3,3,4,4,5,5,6,6,7,7,8,8,9,9,11,11,14,14],"right_children":[2,-1,4,6,8,10,12,14,16,18,-1,20,-1,-1,22,-1,-1,-1,-1,-1,-1,-1,-1],"split_conditions":[1E0,2.5216177E-1,1E0,1E0,1E0,1.4E1,1E0,1E0,3E0,1.1E1,-2.5044993E-1,6E0,-3.2069677E-1,2.1840264E-1,1E0,8.807187E-2,2.4589361E-1,1.9324658E-3,4.4438314E-1,-5.2328635E-2,1.7335264E-1,1.8762435E-1,-1.906928E-2],"split_indices":[2,0,7,15,10,3,6,11,3,3,0,3,0,0,9,0,0,0,0,0,0,0,0],"split_type":[0,0,0,0,0,0,0,0,0,0,0,0,0,0,0,0,0,0,0,0,0,0,0],"sum_hessian":[9.2948645E2,5.166428E0,9.2432007E2,9.006796E2,2.3640396E1,8.3268353E2,6.799612E1,1.8179535E1,5.4608607E0,8.305289E2,2.1546938E0,6.1451687E1,6.5444255E0,2.2151685E0,1.5964366E1,1.7140918E0,3.7467687E0,8.2831445E2,2.2144017E0,5.5333313E1,6.1183743E0,1.37923E0,1.4585136E1],"tree_param":{"num_deleted":"0","num_feature":"16","num_nodes":"23","size_leaf_vector":"1"}},{"base_weights":[5.9765344E-3,2.4085125E-1,1.6314323E-3,-4.2993543E-3,3.9131933E-1,-7.021677E-3,2.4362181E-1,1.3191317E-1,2.56472E-1,5.230417E-1,-1.0986417E-2,-6.393776E-2,2.3505999E-1,5.0443515E-2,2.930117E-1,-4.3099858E-2,1.6121914E-3,2.2882865E-1,-9.4303526E-2],"categories":[],"categories_nodes":[],"categories_segments":[],"categories_sizes":[],"default_left":[0,0,0,0,0,0,0,0,0,0,0,0,0,0,0,0,0,0,0],"id":18,"left_children":[1,-1,3,5,7,9,-1,11,-1,13,15,17,-1,-1,-1,-1,-1,-1,-1],"loss_changes":[3.205482E0,0E0,2.132901E0,2.0265765E0,1.5509737E0,1.9124491E0,0E0,1.3331234E0,0E0,9.235779E-1,1.9576991E0,2.0313847E0,0E0,0E0,0E0,0E0,0E0,0E0,0E0],"parents":[2147483647,0,0,2,2,3,3,4,4,5,5,7,7,9,9,10,10,11,11],"right_children":[2,-1,4,6,8,10,-1,12,-1,14,16,18,-1,-1,-1,-1,-1,-1,-1],"split_conditions":[1E0,2.4085125E-1,1E0,1E0,3E0,1E0,2.4362181E-1,1E0,2.56472E-1,1E0,2E0,1E0,2.3505999E-1,5.0443515E-2,2.930117E-1,-4.3099858E-2,1.6121914E-3,2.2882865E-1,-9.4303526E-2],"split_indices":[2,0,1,0,3,3,0,10,0,10,3,11,0,0,0,0,0,0,0],"split_type":[0,0,0,0,0,0,0,0,0,0,0,0,0,0,0,0,0,0,0],"sum_hessian":[9.2516473E2,4.020742E0,9.21144E2,9.083091E2,1.2834884E1,9.062784E2,2.0307312E0,9.053455E0,3.7814276E0,5.7564006E0,9.00522E2,7.654652E0,1.3988035E0,3.9988098E0,1.7575908E0,9.799763E1,8.0252435E2,1.303887E0,6.350765E0],"tree_param":{"num_deleted":"0","num_feature":"16","num_nodes":"19","size_leaf_vector":"1"}},{"base_weights":[6.0261628E-3,2.2839473E-1,2.5972791E-3,1.2366841E-1,-1.4691289E-2,3.4095693E-1,-2.0206046E-1,-3.463436E-2,2.4442554E-1,6.274099E-1,4.679315E-2,-5.298185E-1,4.032619E-1,-1.9932665E-2,-4.97081E-1,9.179426E-1,-1.4699684E-2,-3.7000522E-2,3.4348166E-1,3.2452932E-1,-6.235475E-2,-4.608276E-2,-1.908907E-1,4.0487178E-2,3.6490655E-1,-2.1695286E-2,1.1432866E-2,-2.1139029E-1,-1.3162078E-2,-2.5036973E-1,3.3660406E-1,5.502781E-2,-1.4738749E-1],"categories":[],"categories_nodes":[],"categories_segments":[],"categories_sizes":[],"default_left":[0,0,0,0,0,0,0,0,0,0,0,0,0,0,0,0,0,0,0,0,0,0,0,0,0,0,0,0,0,0,0,0,0],"id":19,"left_children":[1,-1,3,5,7,9,11,13,15,17,19,21,23,25,27,29,31,-1,-1,-1,-1,-1,-1,-1,-1,-1,-1,-1,-1,-1,-1,-1,-1],"loss_changes":[2.3858726E0,0E0,1.92512E0,8.202667E0,4.168043E0,5.8107643E0,9.461742E0,5.0775113E0,1.0074713E1,1.3752785E1,9.5212345E0,1.1309862E0,3.5317435E0,2.211018E0,2.1339025E0,6.6703587E0,4.114145E0,0E0,0E0,0E0,0E0,0E0,0E0,0E0,0E0,0E0,0E0,0E0,0E0,0E0,0E0,0E0,0E0],"parents":[2147483647,0,0,2,2,3,3,4,4,5,5,6,6,7,7,8,8,9,9,10,10,11,11,12,12,13,13,14,14,15,15,16,16],"right_children":[2,-1,4,6,8,10,12,14,16,18,20,22,24,26,28,30,32,-1,-1,-1,-1,-1,-1,-1,-1,-1,-1,-1,-1,-1,-1,-1,-1],"split_conditions":[1E0,2.2839473E-1,1E0,1E0,1E0,4E0,3E0,1E0,1E0,2E0,1E0,2E0,1E0,4E0,6E0,2E0,1E0,-3.7000522E-2,3.4348166E-1,3.2452932E-1,-6.235475E-2,-4.608276E-2,-1.908907E-1,4.0487178E-2,3.6490655E-1,-2.1695286E-2,1.1432866E-2,-2.1139029E-1,-1.3162078E-2,-2.5036973E-1,3.3660406E-1,5.502781E-2,-1.4738749E-1],"split_indices":[2,0,9,10,12,3,3,15,15,3,11,3,8,3,3,3,8,0,0,0,0,0,0,0,0,0,0,0,0,0,0,0,0],"split_type":[0,0,0,0,0,0,0,0,0,0,0,0,0,0,0,0,0,0,0,0,0,0,0,0,0,0,0,0,0,0,0,0,0],"sum_hessian":[9.2102094E2,3.1634748E0,9.178575E2,1.139209E2,8.039366E2,6.830738E1,4.5613518E1,7.4728754E2,5.6649063E1,3.4033318E1,3.4274067E1,2.9672028E1,1.594149E1,7.252734E2,2.2014145E1,1.5032969E1,4.1616093E1,1.419837E1,1.9834948E1,6.1262584E0,2.8147808E1,7.084592E0,2.2587435E1,1.2862951E1,3.0785391E0,3.8108557E2,3.441878E2,1.4718715E1,7.295431E0,1.2456927E0,1.3787276E1,2.9830345E1,1.1785748E1],"tree_param":{"num_deleted":"0","num_feature":"16","num_nodes":"33","size_leaf_vector":"1"}},{"base_weights":[4.926443E-3,2.1509945E-1,2.1570637E-3,4.5680683E-3,-2.2691669E-1,4.0499915E-4,3.6455172E-1,7.2995927E-3,-4.0428036E-1,6.6293566E-4,2.2414397E-1,-1.9337995E-1,2.795935E-1],"categories":[],"categories_nodes":[],"categories_segments":[],"categories_sizes":[],"default_left":[0,0,0,0,0,0,0,0,0,0,0,0,0],"id":20,"left_children":[1,-1,3,5,-1,7,-1,9,11,-1,-1,-1,-1],"loss_changes":[1.7915096E0,0E0,1.6617532E0,4.559852E0,0E0,2.521779E0,0E0,3.344605E0,5.4627566E0,0E0,0E0,0E0,0E0],"parents":[2147483647,0,0,2,2,3,3,5,5,7,7,8,8],"right_children":[2,-1,4,6,-1,8,-1,10,12,-1,-1,-1,-1],"split_conditions":[1E0,2.1509945E-1,1.4E1,1.1E1,-2.2691669E-1,1E1,3.6455172E-1,9E0,1E0,6.6293566E-4,2.2414397E-1,-1.9337995E-1,2.795935E-1],"split_indices":[2,0,3,3,0,3,0,3,10,0,0,0,0],"split_type":[0,0,0,0,0,0,0,0,0,0,0,0,0],"sum_hessian":[9.0825916E2,2.5195608E0,9.0573956E2,9.038607E2,1.8789035E0,9.0176E2,2.1006699E0,8.876197E2,1.4140347E1,8.825511E2,5.0685596E0,1.2423628E1,1.716719E0],"tree_param":{"num_deleted":"0","num_feature":"16","num_nodes":"13","size_leaf_vector":"1"}},{"base_weights":[4.1487403E-3,-2.8195947E-3,2.681177E-1,-5.113057E-3,2.2142187E-1,1.3055475E-1,2.0264441E-1,4.331457E-1,-8.373029E-3,1.9904152E-1,3.6650814E-2,6.155315E-1,-7.482984E-2,-1.2724403E-2,3.0976665E-1,-4.4798944E-2,1.7708404E-1,-8.078633E-3,2.8002027E-1,-3.207696E-3,-2.0169029E-1,2.8936455E-2,2.318204E-1,1.6238959E-1,-3.685135E-2],"categories":[],"categories_nodes":[],"categories_segments":[],"categories_sizes":[],"default_left":[0,0,0,0,0,0,0,0,0,0,0,0,0,0,0,0,0,0,0,0,0,0,0,0,0],"id":21,"left_children":[1,3,5,7,-1,9,-1,11,13,-1,15,17,-1,19,21,23,-1,-1,-1,-1,-1,-1,-1,-1,-1],"loss_changes":[1.6688163E0,1.506732E0,1.2193904E0,1.2648475E0,0E0,9.1062963E-1,0E0,9.67332E-1,1.2183324E0,0E0,7.9042953E-1,1.1374974E0,0E0,1.1540008E0,1.0982933E0,7.845401E-1,0E0,0E0,0E0,0E0,0E0,0E0,0E0,0E0,0E0],"parents":[2147483647,0,0,1,1,2,2,3,3,5,5,7,7,8,8,10,10,11,11,13,13,14,14,15,15],"right_children":[2,4,6,8,-1,10,-1,12,14,-1,16,18,-1,20,22,24,-1,-1,-1,-1,-1,-1,-1,-1,-1],"split_conditions":[1E0,1E0,1E0,1E0,2.2142187E-1,1E0,2.0264441E-1,1E0,1E0,1.9904152E-1,1E0,1E0,-7.482984E-2,1.4E1,3E0,1E0,1.7708404E-1,-8.078633E-3,2.8002027E-1,-3.207696E-3,-2.0169029E-1,2.8936455E-2,2.318204E-1,1.6238959E-1,-3.685135E-2],"split_indices":[7,0,10,3,0,11,0,13,1,0,12,11,0,3,3,9,0,0,0,0,0,0,0,0,0],"split_type":[0,0,0,0,0,0,0,0,0,0,0,0,0,0,0,0,0,0,0,0,0,0,0,0,0],"sum_hessian":[9.058384E2,8.8350464E2,2.2333712E1,8.817682E2,1.7364497E0,1.768286E1,4.6508527E0,5.53692E0,8.7623126E2,1.7404052E0,1.5942454E1,4.446923E0,1.089997E0,8.6535535E2,1.0875947E1,1.469902E1,1.2434337E0,1.7748917E0,2.6720312E0,8.637105E2,1.6447886E0,8.272668E0,2.603279E0,1.0296609E0,1.3669359E1],"tree_param":{"num_deleted":"0","num_feature":"16","num_nodes":"25","size_leaf_vector":"1"}},{"base_weights":[4.52168E-3,1.9786765E-1,2.3868643E-3,-3.1294513E-3,2.2443818E-1,-5.0034653E-3,2.0117657E-1,1.0818051E-1,1.8529634E-1,8.442214E-2,-1.7537905E-2,2.5451992E-2,1.8687943E-1,1.0285707E-2,4.5845494E-1,-1.1006716E-3,-5.436213E-2,6.2315572E-2,-1.9835074E-2],"categories":[],"categories_nodes":[],"categories_segments":[],"categories_sizes":[],"default_left":[0,0,0,0,0,0,0,0,0,0,0,0,0,0,0,0,0,0,0],"id":22,"left_children":[1,-1,3,5,7,9,-1,11,-1,13,15,17,-1,-1,-1,-1,-1,-1,-1],"loss_changes":[1.2614738E0,0E0,1.1046968E0,1.1149464E0,9.325589E-1,9.867277E-1,0E0,7.5429094E-1,0E0,7.7817745E0,1.7511512E0,2.9118034E-1,0E0,0E0,0E0,0E0,0E0,0E0,0E0],"parents":[2147483647,0,0,2,2,3,3,4,4,5,5,7,7,9,9,10,10,11,11],"right_children":[2,-1,4,6,8,10,-1,12,-1,14,16,18,-1,-1,-1,-1,-1,-1,-1],"split_conditions":[1E0,1.9786765E-1,1E0,1E0,5E0,1E0,2.0117657E-1,1E0,1.8529634E-1,1E0,1E0,3E0,1.8687943E-1,1.0285707E-2,4.5845494E-1,-1.1006716E-3,-5.436213E-2,6.2315572E-2,-1.9835074E-2],"split_indices":[2,0,7,0,3,9,0,12,0,6,15,3,0,0,0,0,0,0,0],"split_type":[0,0,0,0,0,0,0,0,0,0,0,0,0,0,0,0,0,0,0],"sum_hessian":[9.0222015E2,1.9304687E0,9.002897E2,8.7942834E2,2.0861315E1,8.7797876E2,1.4496125E0,1.7085085E1,3.7762306E0,1.072291E2,7.7074963E2,1.5623577E1,1.4615078E0,1.046198E2,2.609309E0,7.114825E2,5.926719E1,4.8002696E0,1.0823307E1],"tree_param":{"num_deleted":"0","num_feature":"16","num_nodes":"19","size_leaf_vector":"1"}},{"base_weights":[4.7348416E-3,4.2334598E-1,1.6771092E-3,5.7015723E-1,-4.822504E-2,-8.041809E-3,1.2601209E-1,-1.8907466E-3,2.5820658E-1,3.210496E-4,-3.306443E-1,-7.13215E-1,2.675757E-1,-2.1635126E-3,2.2568028E-1,-4.9988377E-1,2.764068E-3,-2.6320326E-3,-2.7727753E-1,3.3336458E-1,-2.2084485E-1,1.322245E-3,-9.680963E-2,1.306039E-2,-2.0917523E-1,-2.0552067E-1,2.1071947E-1,-2.1256366E-1,2.2968933E-1,3.5659418E-2,2.423343E-1],"categories":[],"categories_nodes":[],"categories_segments":[],"categories_sizes":[],"default_left":[0,0,0,0,0,0,0,0,0,0,0,0,0,0,0,0,0,0,0,0,0,0,0,0,0,0,0,0,0,0,0],"id":23,"left_children":[1,3,5,7,-1,9,11,-1,-1,13,15,17,19,21,-1,23,25,27,-1,29,-1,-1,-1,-1,-1,-1,-1,-1,-1,-1,-1],"loss_changes":[1.150953E0,6.507945E-1,1.0815849E0,9.1495335E-1,0E0,2.2402227E0,7.900117E0,0E0,0E0,1.5155576E0,1.1852913E0,1.4430537E0,3.9599342E0,1.7046754E0,0E0,1.523608E0,4.359411E0,2.283392E0,0E0,5.3462186E0,0E0,0E0,0E0,0E0,0E0,0E0,0E0,0E0,0E0,0E0,0E0],"parents":[2147483647,0,0,1,1,2,2,3,3,5,5,6,6,9,9,10,10,11,11,12,12,13,13,15,15,16,16,17,17,19,19],"right_children":[2,4,6,8,-1,10,12,-1,-1,14,16,18,20,22,-1,24,26,28,-1,30,-1,-1,-1,-1,-1,-1,-1,-1,-1,-1,-1],"split_conditions":[1E0,1E0,1E0,1E0,-4.822504E-2,1E0,2E0,-1.8907466E-3,2.5820658E-1,1E0,6E0,1E0,1E0,1E1,2.2568028E-1,3E0,1E0,1E0,-2.7727753E-1,1E0,-2.2084485E-1,1.322245E-3,-9.680963E-2,1.306039E-2,-2.0917523E-1,-2.0552067E-1,2.1071947E-1,-2.1256366E-1,2.2968933E-1,3.5659418E-2,2.423343E-1],"split_indices":[3,13,12,11,0,15,3,0,0,13,3,8,6,3,0,3,11,13,0,10,0,0,0,0,0,0,0,0,0,0,0],"split_type":[0,0,0,0,0,0,0,0,0,0,0,0,0,0,0,0,0,0,0,0,0,0,0,0,0,0,0,0,0,0,0],"sum_hessian":[8.9873615E2,5.52046E0,8.9321564E2,4.430682E0,1.089778E0,8.2932495E2,6.38907E1,1.8125689E0,2.6181135E0,8.0934326E2,1.9981688E1,8.638896E0,5.5251804E1,8.076717E2,1.6715653E0,1.2922739E1,7.0589495E0,2.210068E0,6.428828E0,5.24799E1,2.7719061E0,7.924134E2,1.5258283E1,3.6506577E0,9.272081E0,3.5699925E0,3.488957E0,1.19228E0,1.0177878E0,3.7001022E1,1.5478876E1],"tree_param":{"num_deleted":"0","num_feature":"16","num_nodes":"31","size_leaf_vector":"1"}},{"base_weights":[2.8223547E-3,-1.1020611E-3,2.9391646E-1,1.8018086E-1,-2.802333E-3,9.3995646E-2,2.2572808E-1,2.263181E-2,-3.9816733E-2,2.361524E-1,-1.13674186E-1,2.0150882E-1,-3.0806004E-3,-5.2763462E-2,2.5254032E-1,-9.4248034E-2,1.9273373E-1,8.767052E-2,-1.2700032E-1,-2.615354E-2,2.4555033E-2,-2.3033535E-2,5.6098778E-2],"categories":[],"categories_nodes":[],"categories_segments":[],"categories_sizes":[],"default_left":[0,0,0,0,0,0,0,0,0,0,0,0,0,0,0,0,0,0,0,0,0,0,0],"id":24,"left_children":[1,3,5,-1,7,9,-1,11,13,-1,15,17,19,21,-1,-1,-1,-1,-1,-1,-1,-1,-1],"loss_changes":[1.0245144E0,9.0772295E-1,1.022832E0,0E0,8.3323354E-1,1.4498752E0,0E0,2.4137628E0,4.1585755E0,0E0,1.4366293E0,3.8626509E0,3.2906432E0,2.0651245E0,0E0,0E0,0E0,0E0,0E0,0E0,0E0,0E0,0E0],"parents":[2147483647,0,0,1,1,2,2,4,4,5,5,7,7,8,8,10,10,11,11,12,12,13,13],"right_children":[2,4,6,-1,8,10,-1,12,14,-1,16,18,20,22,-1,-1,-1,-1,-1,-1,-1,-1,-1],"split_conditions":[1E0,1E0,3E0,1.8018086E-1,1E0,2E0,2.2572808E-1,1E0,9E0,2.361524E-1,1E0,1E0,4E0,1E0,2.5254032E-1,-9.4248034E-2,1.9273373E-1,8.767052E-2,-1.2700032E-1,-2.615354E-2,2.4555033E-2,-2.3033535E-2,5.6098778E-2],"split_indices":[1,2,3,0,10,3,0,9,3,0,10,12,3,6,0,0,0,0,0,0,0,0,0],"split_type":[0,0,0,0,0,0,0,0,0,0,0,0,0,0,0,0,0,0,0,0,0,0,0],"sum_hessian":[8.9554553E2,8.8461566E2,1.0929825E1,1.5001274E0,8.8311554E2,8.450305E0,2.4795198E0,5.236691E2,3.594464E2,1.3047345E0,7.1455703E0,6.4954475E1,4.5871466E2,3.551708E2,4.275602E0,6.1100063E0,1.0355638E0,5.718379E1,7.770688E0,2.3047414E2,2.2824054E2,3.2345264E2,3.1718178E1],"tree_param":{"num_deleted":"0","num_feature":"16","num_nodes":"23","size_leaf_vector":"1"}},{"base_weights":[3.0666057E-3,4.7051124E-3,-1.7985424E-1,1.3157248E-3,3.159366E-1,5.8601163E-3,-3.013445E-1,2.5019397E-3,1.6100979E-1,-1.5032232E-1,2.0403075E-1,1.4052353E-2,-5.836995E-3],"categories":[],"categories_nodes":[],"categories_segments":[],"categories_sizes":[],"default_left":[0,0,0,0,0,0,0,0,0,0,0,0,0],"id":25,"left_children":[1,3,-1,5,-1,7,9,11,-1,-1,-1,-1,-1],"loss_changes":[8.828871E-1,3.1609812E0,0E0,1.2232177E0,0E0,1.5600994E0,2.919674E0,8.4933794E-1,0E0,0E0,0E0,0E0,0E0],"parents":[2147483647,0,0,1,1,3,3,5,5,6,6,7,7],"right_children":[2,4,-1,6,-1,8,10,12,-1,-1,-1,-1,-1],"split_conditions":[1.4E1,1.1E1,-1.7985424E-1,1E1,3.159366E-1,9E0,1E0,3E0,1.6100979E-1,-1.5032232E-1,2.0403075E-1,1.4052353E-2,-5.836995E-3],"split_indices":[3,3,0,3,0,3,10,3,0,0,0,0,0],"split_type":[0,0,0,0,0,0,0,0,0,0,0,0,0],"sum_hessian":[8.903573E2,8.889324E2,1.4249481E0,8.8706586E2,1.8665074E0,8.749099E2,1.2155984E1,8.7040826E2,4.501634E0,1.0507171E1,1.6488132E0,2.8791376E2,5.824945E2],"tree_param":{"num_deleted":"0","num_feature":"16","num_nodes":"13","size_leaf_vector":"1"}},{"base_weights":[2.4999033E-3,9.561496E-4,1.8410942E-1,-2.4636989E-3,2.690291E-1,3.6331463E-1,-4.9676476E-3,9.5046766E-2,2.1120425E-1,8.7846756E-2,2.349942E-1,-1.2636414E-2,9.446867E-2,2.112175E-1,-7.936502E-2,3.8147084E-3,3.9292917E-2,-1.8778979E-3,-8.2474746E-2,-1.8302509E-1,6.0242802E-2,1.9789985E-1,-8.418295E-2],"categories":[],"categories_nodes":[],"categories_segments":[],"categories_sizes":[],"default_left":[0,0,0,0,0,0,0,0,0,0,0,0,0,0,0,0,0,0,0,0,0,0,0],"id":26,"left_children":[1,3,-1,5,7,9,11,13,-1,15,-1,17,19,-1,21,-1,-1,-1,-1,-1,-1,-1,-1],"loss_changes":[8.3995676E-1,8.162187E-1,0E0,8.0722326E-1,7.818233E-1,6.244881E-1,6.6796386E-1,1.029569E0,0E0,1.3710726E-2,0E0,1.3574562E0,4.8220067E0,0E0,1.3785988E0,0E0,0E0,0E0,0E0,0E0,0E0,0E0,0E0],"parents":[2147483647,0,0,1,1,3,3,4,4,5,5,6,6,7,7,9,9,11,11,12,12,14,14],"right_children":[2,4,-1,6,8,10,12,14,-1,16,-1,18,20,-1,22,-1,-1,-1,-1,-1,-1,-1,-1],"split_conditions":[1E0,1E0,1.8410942E-1,1E0,3E0,1E0,1E0,2E0,2.1120425E-1,1E0,2.349942E-1,1E0,2E0,2.112175E-1,1E0,3.8147084E-3,3.9292917E-2,-1.8778979E-3,-8.2474746E-2,-1.8302509E-1,6.0242802E-2,1.9789985E-1,-8.418295E-2],"split_indices":[0,1,0,3,3,10,12,3,0,11,0,15,3,0,11,0,0,0,0,0,0,0,0],"split_type":[0,0,0,0,0,0,0,0,0,0,0,0,0,0,0,0,0,0,0,0,0,0,0],"sum_hessian":[8.8984094E2,8.885981E2,1.2428412E0,8.7838324E2,1.0214862E1,4.992409E0,8.733908E2,8.166847E0,2.0480142E0,3.7451873E0,1.2472223E0,8.116661E2,6.1724712E1,1.1421002E0,7.024747E0,1.8380902E0,1.907097E0,7.9340015E2,1.8265938E1,7.473371E0,5.4251343E1,1.0159489E0,6.008798E0],"tree_param":{"num_deleted":"0","num_feature":"16","num_nodes":"23","size_leaf_vector":"1"}},{"base_weights":[2.6165664E-3,-4.428839E-4,2.557212E-1,1.6519117E-1,-1.8391263E-3,1.08714186E-1,2.0848034E-1,-3.1560448E-3,1.6805549E-1,2.0371573E-1,-7.345715E-2,-1.779015E-3,-1.5937719E-1,1.972605E-1,-9.442763E-2,-1.3796587E-3,2.7885824E-1],"categories":[],"categories_nodes":[],"categories_segments":[],"categories_sizes":[],"default_left":[0,0,0,0,0,0,0,0,0,0,0,0,0,0,0,0,0],"id":27,"left_children":[1,3,5,-1,7,9,-1,11,-1,-1,13,15,-1,-1,-1,-1,-1],"loss_changes":[6.8772787E-1,6.7686665E-1,6.093253E-1,0E0,6.5097916E-1,9.987532E-1,0E0,6.361576E-1,0E0,0E0,1.5870593E0,2.3016636E0,0E0,0E0,0E0,0E0,0E0],"parents":[2147483647,0,0,1,1,2,2,4,4,5,5,7,7,10,10,11,11],"right_children":[2,4,6,-1,8,10,-1,12,-1,-1,14,16,-1,-1,-1,-1,-1],"split_conditions":[1E0,1E0,1E0,1.6519117E-1,1E0,1E0,2.0848034E-1,1.4E1,1.6805549E-1,2.0371573E-1,1E0,1.1E1,-1.5937719E-1,1.972605E-1,-9.442763E-2,-1.3796587E-3,2.7885824E-1],"split_indices":[1,2,10,0,0,11,0,3,0,0,9,3,0,0,0,0,0],"split_type":[0,0,0,0,0,0,0,0,0,0,0,0,0,0,0,0,0],"sum_hessian":[8.869768E2,8.773697E2,9.607122E0,1.2231832E0,8.761465E2,8.132613E0,1.4745089E0,8.750904E2,1.0561018E0,1.3084857E0,6.8241277E0,8.7381525E2,1.2751145E0,1.265502E0,5.5586257E0,8.7216956E2,1.6457281E0],"tree_param":{"num_deleted":"0","num_feature":"16","num_nodes":"17","size_leaf_vector":"1"}},{"base_weights":[3.0409526E-3,-1.2684464E-3,1.8374918E-1,1.8847259E-2,-3.0402249E-2,8.247029E-2,5.5334973E-1,2.5929807E-2,-2.711723E-1,-4.3970518E-2,4.214551E-1,1.7560019E-1,5.5228462E-3,3.82567E-2,2.0570168E-1,-2.1386469E-2,7.581056E-2,1.6156113E-1,-4.3184745E-1,-4.7588024E-1,-2.7447175E-2,3.2415998E-1,2.1799241E-1,2.1317166E-1,-7.3186584E-2,9.506368E-2,-2.20915E-2,1.2252228E-2,4.7124258E-1,-1.4434697E-1,-1.1536527E-3,-2.0975126E-1,1.1867722E-2,-2.5946458E-4,-7.205674E-2,-3.0781066E-2,2.3489305E-1,-1.1319299E-2,1.1275237E-1,-3.7934422E-2,6.0767394E-2],"categories":[],"categories_nodes":[],"categories_segments":[],"categories_sizes":[],"default_left":[0,0,0,0,0,0,0,0,0,0,0,0,0,0,0,0,0,0,0,0,0,0,0,0,0,0,0,0,0,0,0,0,0,0,0,0,0,0,0,0,0],"id":28,"left_children":[1,3,5,7,9,11,13,15,17,19,21,-1,23,-1,-1,25,27,-1,29,31,33,-1,35,37,39,-1,-1,-1,-1,-1,-1,-1,-1,-1,-1,-1,-1,-1,-1,-1,-1],"loss_changes":[6.904476E-1,5.084805E-1,7.273816E-1,1.061387E0,2.1911354E0,6.6943604E-1,1.5296578E-1,1.1863683E0,1.835879E0,2.4486568E0,1.1624424E0,0E0,2.785214E-1,0E0,0E0,4.5903697E0,1.2722717E1,0E0,2.268815E-1,1.4834507E0,1.8846275E0,0E0,1.7501395E0,2.0507838E-1,2.0786583E-1,0E0,0E0,0E0,0E0,0E0,0E0,0E0,0E0,0E0,0E0,0E0,0E0,0E0,0E0,0E0,0E0],"parents":[2147483647,0,0,1,1,2,2,3,3,4,4,5,5,6,6,7,7,8,8,9,9,10,10,12,12,15,15,16,16,18,18,19,19,20,20,22,22,23,23,24,24],"right_children":[2,4,6,8,10,12,14,16,18,20,22,-1,24,-1,-1,26,28,-1,30,32,34,-1,36,38,40,-1,-1,-1,-1,-1,-1,-1,-1,-1,-1,-1,-1,-1,-1,-1,-1],"split_conditions":[1E0,1E0,1E0,1E1,8E0,1E0,3E0,4E0,1E0,1E0,1E0,1.7560019E-1,3E0,3.82567E-2,2.0570168E-1,1E0,1E0,1.6156113E-1,1.1E1,3E0,6E0,3.2415998E-1,1E0,2E0,5E0,9.506368E-2,-2.20915E-2,1.2252228E-2,4.7124258E-1,-1.4434697E-1,-1.1536527E-3,-2.0975126E-1,1.1867722E-2,-2.5946458E-4,-7.205674E-2,-3.0781066E-2,2.3489305E-1,-1.1319299E-2,1.1275237E-1,-3.7934422E-2,6.0767394E-2],"split_indices":[7,10,10,3,3,11,3,3,11,11,11,0,3,0,0,9,13,0,3,3,3,0,8,3,3,0,0,0,0,0,0,0,0,0,0,0,0,0,0,0,0],"split_type":[0,0,0,0,0,0,0,0,0,0,0,0,0,0,0,0,0,0,0,0,0,0,0,0,0,0,0,0,0,0,0,0,0,0,0,0,0,0,0,0,0],"sum_hessian":[8.853177E2,8.656669E2,1.9650816E1,5.1229865E2,3.5336826E2,1.6384285E1,3.2665308E0,5.0097495E2,1.1323683E1,3.439431E2,9.425156E0,1.2975649E0,1.508672E1,1.2399546E0,2.0265763E0,2.573896E2,2.4358537E2,1.4855682E0,9.838115E0,1.1648858E1,3.3229425E2,1.2064317E0,8.218724E0,3.6772292E0,1.1409491E1,3.3761524E1,2.2362805E2,2.3902168E2,4.563687E0,8.710416E0,1.1276993E0,7.8791285E0,3.7697296E0,2.962781E2,3.6016148E1,5.7655206E0,2.4532034E0,1.7484536E0,1.9287757E0,1.0016234E1,1.3932567E0],"tree_param":{"num_deleted":"0","num_feature":"16","num_nodes":"41","size_leaf_vector":"1"}},{"base_weights":[3.6789386E-3,4.227233E-2,-1.49074895E-2,4.26565E-3,5.3431976E-1,9.820276E-4,-2.130203E-1,-2.9939154E-2,7.1638924E-1,9.215852E-1,-3.2871306E-1,-1.5670279E-2,2.3988555E-1,-3.6372134E-1,9.8409194E-1,-3.2057926E-1,4.4580463E-2,4.9210924E-1,1.2317259E-1,3.8377282E-1,4.114358E-1,-9.039304E-2,1.6641503E-2,-2.855713E-1,4.041484E-1,-5.356965E-1,5.797259E-1,4.9206933E-1,-1.2349417E-2,-7.6241255E-2,-1.9694734E-1,6.792884E-2,-2.928888E-2,2.1965206E-2,7.373874E-2,2.4351282E-1,-3.516998E-2,2.3287188E-1,-5.9131835E-2,-2.355007E-3,1.781938E-1,-1.6058461E-1,2.4658458E-1,2.0899114E-1,-5.9702657E-2,3.037687E-1,-1.9078605E-1,2.9728976E-1,-1.3307767E-1],"categories":[],"categories_nodes":[],"categories_segments":[],"categories_sizes":[],"default_left":[0,0,0,0,0,0,0,0,0,0,0,0,0,0,0,0,0,0,0,0,0,0,0,0,0,0,0,0,0,0,0,0,0,0,0,0,0,0,0,0,0,0,0,0,0,0,0,0,0],"id":29,"left_children":[1,3,5,7,9,11,13,15,17,19,-1,21,23,25,27,29,31,-1,33,35,-1,37,39,41,43,45,47,-1,-1,-1,-1,-1,-1,-1,-1,-1,-1,-1,-1,-1,-1,-1,-1,-1,-1,-1,-1,-1,-1],"loss_changes":[6.326792E-1,5.3588605E0,1.8746637E0,6.5281587E0,1.3980516E1,2.2007394E0,8.334944E0,5.5554814E0,6.5303583E0,3.6220837E0,0E0,1.2502348E0,3.226654E0,6.8010464E0,3.5749183E0,1.0011673E0,5.3109307E0,0E0,3.4448087E-2,2.067257E0,0E0,1.46066265E1,5.1220036E0,2.976202E0,5.056318E0,5.9766884E0,3.2372258E0,0E0,0E0,0E0,0E0,0E0,0E0,0E0,0E0,0E0,0E0,0E0,0E0,0E0,0E0,0E0,0E0,0E0,0E0,0E0,0E0,0E0,0E0],"parents":[2147483647,0,0,1,1,2,2,3,3,4,4,5,5,6,6,7,7,8,8,9,9,11,11,12,12,13,13,14,14,15,15,16,16,18,18,19,19,21,21,22,22,23,23,24,24,25,25,26,26],"right_children":[2,4,6,8,10,12,14,16,18,20,-1,22,24,26,28,30,32,-1,34,36,-1,38,40,42,44,46,48,-1,-1,-1,-1,-1,-1,-1,-1,-1,-1,-1,-1,-1,-1,-1,-1,-1,-1,-1,-1,-1,-1],"split_conditions":[3E0,1E0,1E0,1E0,1E0,1E0,1E0,1E0,1E0,1E0,-3.2871306E-1,4E0,1E0,6E0,4E0,1E0,1E0,4.9210924E-1,2E0,1E0,4.114358E-1,1E0,1E0,1E0,1E0,1E0,1E0,4.9206933E-1,-1.2349417E-2,-7.6241255E-2,-1.9694734E-1,6.792884E-2,-2.928888E-2,2.1965206E-2,7.373874E-2,2.4351282E-1,-3.516998E-2,2.3287188E-1,-5.9131835E-2,-2.355007E-3,1.781938E-1,-1.6058461E-1,2.4658458E-1,2.0899114E-1,-5.9702657E-2,3.037687E-1,-1.9078605E-1,2.9728976E-1,-1.3307767E-1],"split_indices":[3,6,6,4,4,12,8,11,10,10,0,3,9,3,3,13,10,0,3,11,0,11,8,13,8,9,15,0,0,0,0,0,0,0,0,0,0,0,0,0,0,0,0,0,0,0,0,0,0],"split_type":[0,0,0,0,0,0,0,0,0,0,0,0,0,0,0,0,0,0,0,0,0,0,0,0,0,0,0,0,0,0,0,0,0,0,0,0,0,0,0,0,0,0,0,0,0,0,0,0,0],"sum_hessian":[8.80134E2,2.856753E2,5.944587E2,2.6612775E2,1.9547544E1,5.5124176E2,4.3216965E1,2.5484497E2,1.1282785E1,1.6146137E1,3.401408E0,5.1619574E2,3.5046013E1,3.900314E1,4.2138267E0,5.13334E1,2.0351157E2,3.721342E0,7.5614433E0,8.198266E0,7.9478707E0,1.5528746E2,3.6090826E2,8.170637E0,2.6875374E1,3.3355217E1,5.647924E0,2.2036927E0,2.0101337E0,4.432307E1,7.01033E0,8.904912E1,1.14462456E2,6.507469E0,1.0539742E0,4.0870957E0,4.11117E0,1.6337132E1,1.3895033E2,3.471673E2,1.3740951E1,7.08898E0,1.0816568E0,1.7994385E1,8.880991E0,1.4751376E0,3.1880077E1,4.051405E0,1.5965191E0],"tree_param":{"num_deleted":"0","num_feature":"16","num_nodes":"49","size_leaf_vector":"1"}},{"base_weights":[3.8618795E-3,-2.950588E-4,1.806279E-1,7.877229E-3,-1.1204918E-1,1.08260885E-1,1.8870223E-1,4.554219E-1,5.418695E-3,-6.3417566E-1,3.457723E-2,1.6615452E-1,4.6409197E-2,1.21187465E-2,2.1442038E-1,3.5353126E-3,1.7700897E-1,-1.9909476E-1,-4.5363765E-2,-4.7194608E-2,6.672445E-1,1.3173972E-3,8.622861E-2,2.482098E-3,-8.507242E-2,3.746108E-2,-1.7338577E-1,5.722318E-1,-7.613188E-2,3.4361012E-2,-1.1269434E-2],"categories":[],"categories_nodes":[],"categories_segments":[],"categories_sizes":[],"default_left":[0,0,0,0,0,0,0,0,0,0,0,0,0,0,0,0,0,0,0,0,0,0,0,0,0,0,0,0,0,0,0],"id":30,"left_children":[1,3,5,7,9,11,-1,13,15,17,19,-1,21,-1,-1,23,-1,-1,-1,25,27,29,-1,-1,-1,-1,-1,-1,-1,-1,-1],"loss_changes":[6.4088714E-1,7.7998394E-1,5.8214486E-1,8.7323785E-1,4.4774027E0,4.8313212E-1,0E0,4.3778807E-1,8.705378E-1,8.2018375E-2,2.4312391E0,0E0,1.8767755E-1,0E0,0E0,1.078446E0,0E0,0E0,0E0,3.9087932E0,6.6238422E0,7.289418E-2,0E0,0E0,0E0,0E0,0E0,0E0,0E0,0E0,0E0],"parents":[2147483647,0,0,1,1,2,2,3,3,4,4,5,5,7,7,8,8,9,9,10,10,12,12,15,15,19,19,20,20,21,21],"right_children":[2,4,6,8,10,12,-1,14,16,18,20,-1,22,-1,-1,24,-1,-1,-1,26,28,30,-1,-1,-1,-1,-1,-1,-1,-1,-1],"split_conditions":[1E0,1E0,1E0,1E0,1E0,1E0,1.8870223E-1,1E0,1E0,8E0,6E0,1.6615452E-1,1E0,1.21187465E-2,2.1442038E-1,1E1,1.7700897E-1,-1.9909476E-1,-4.5363765E-2,5E0,1E0,3E0,8.622861E-2,2.482098E-3,-8.507242E-2,3.746108E-2,-1.7338577E-1,5.722318E-1,-7.613188E-2,3.4361012E-2,-1.1269434E-2],"split_indices":[7,15,6,3,11,11,0,11,13,3,3,0,10,0,0,3,0,0,0,3,10,3,0,0,0,0,0,0,0,0,0],"split_type":[0,0,0,0,0,0,0,0,0,0,0,0,0,0,0,0,0,0,0,0,0,0,0,0,0,0,0,0,0,0,0],"sum_hessian":[8.711137E2,8.5207416E2,1.9039568E1,7.948764E2,5.7197727E1,1.7462608E1,1.57696E0,3.3361247E0,7.915403E2,1.1811759E1,4.538597E1,1.1589469E0,1.6303661E1,1.7273334E0,1.6087912E0,7.900013E2,1.5390197E0,1.0779788E1,1.0319711E0,4.1010757E1,4.375211E0,1.4581168E1,1.7224927E0,7.781305E2,1.1870769E1,3.1548029E1,9.46273E0,1.4081094E0,2.9671013E0,3.2300346E0,1.1351133E1],"tree_param":{"num_deleted":"0","num_feature":"16","num_nodes":"31","size_leaf_vector":"1"}},{"base_weights":[3.5563163E-3,6.0951326E-5,1.5667611E-1,1.1500359E-3,-1.3404211E-1,9.3644395E-2,1.7453633E-1,-1.0335444E-3,2.4239236E-1,3.3451676E-2,1.6175883E-1,-4.5764513E-2,9.8924255E-3,6.554603E-3,5.7978462E-2,4.404959E-2,-1.4751664E-1,-9.835056E-3,9.640889E-2,-5.1405888E-2,1.1114499E-2],"categories":[],"categories_nodes":[],"categories_segments":[],"categories_sizes":[],"default_left":[0,0,0,0,0,0,0,0,0,0,0,0,0,0,0,0,0,0,0,0,0],"id":31,"left_children":[1,3,5,7,-1,9,-1,11,-1,13,-1,15,17,19,-1,-1,-1,-1,-1,-1,-1],"loss_changes":[4.660925E-1,4.1537756E-1,4.6631694E-1,1.5007437E0,0E0,4.6787345E-1,0E0,4.159055E-1,0E0,7.192636E-2,0E0,1.4420427E1,9.102649E0,9.103347E-2,0E0,0E0,0E0,0E0,0E0,0E0,0E0],"parents":[2147483647,0,0,1,1,2,2,3,3,5,5,7,7,9,9,11,11,12,12,13,13],"right_children":[2,4,6,8,-1,10,-1,12,-1,14,-1,16,18,20,-1,-1,-1,-1,-1,-1,-1],"split_conditions":[1E0,1.4E1,1E0,1.1E1,-1.3404211E-1,1E0,1.7453633E-1,1E0,2.4239236E-1,1E0,1.6175883E-1,6E0,6E0,2E0,5.7978462E-2,4.404959E-2,-1.4751664E-1,-9.835056E-3,9.640889E-2,-5.1405888E-2,1.1114499E-2],"split_indices":[7,3,6,3,0,12,0,11,0,10,0,3,3,3,0,0,0,0,0,0,0],"split_type":[0,0,0,0,0,0,0,0,0,0,0,0,0,0,0,0,0,0,0,0,0],"sum_hessian":[8.698776E2,8.5144165E2,1.8436012E1,8.503666E2,1.0750449E0,1.7118166E1,1.3178453E0,8.490674E2,1.299187E0,1.602792E1,1.0902456E0,1.660538E2,6.830136E2,1.4609978E1,1.4179425E0,1.1643819E2,4.9615612E1,6.014949E2,8.1518715E1,1.4618597E0,1.3148118E1],"tree_param":{"num_deleted":"0","num_feature":"16","num_nodes":"21","size_leaf_vector":"1"}},{"base_weights":[2.9251282E-3,4.681516E-4,2.1582352E-1,2.534201E-1,-1.1539784E-3,1.6474614E-2,1.9336557E-1,4.2104495E-1,-6.6396534E-2,-5.7705246E-2,5.760763E-3,5.37974E-3,2.063395E-1,-1.6512975E-2,-5.213859E-1,-3.2862513E-3,1.2828235E-1,-2.5888205E-2,4.6952024E-1,4.0485688E-2,-2.2215721E-1,1.2718611E-3,-9.368086E-2,1.3632969E-2,2.7387074E-1],"categories":[],"categories_nodes":[],"categories_segments":[],"categories_sizes":[],"default_left":[0,0,0,0,0,0,0,0,0,0,0,0,0,0,0,0,0,0,0,0,0,0,0,0,0],"id":32,"left_children":[1,3,5,7,9,-1,-1,11,-1,13,15,-1,-1,17,19,21,23,-1,-1,-1,-1,-1,-1,-1,-1],"loss_changes":[4.5396915E-1,3.5282314E-1,6.4766574E-1,5.2919996E-1,3.3454397E-1,0E0,0E0,4.601416E-1,0E0,1.7717009E0,8.455846E-1,0E0,0E0,9.696741E0,1.1890373E0,1.6546775E0,3.3679094E0,0E0,0E0,0E0,0E0,0E0,0E0,0E0,0E0],"parents":[2147483647,0,0,1,1,2,2,3,3,4,4,7,7,9,9,10,10,13,13,14,14,15,15,16,16],"right_children":[2,4,6,8,10,-1,-1,12,-1,14,16,-1,-1,18,20,22,24,-1,-1,-1,-1,-1,-1,-1,-1],"split_conditions":[1E0,1E0,3E0,1E0,2E0,1.6474614E-2,1.9336557E-1,1E0,-6.6396534E-2,1E0,1E0,5.37974E-3,2.063395E-1,1E0,1E0,1E0,6E0,-2.5888205E-2,4.6952024E-1,4.0485688E-2,-2.2215721E-1,1.2718611E-3,-9.368086E-2,1.3632969E-2,2.7387074E-1],"split_indices":[1,3,3,12,3,0,0,11,0,12,12,0,0,8,10,15,3,0,0,0,0,0,0,0,0],"split_type":[0,0,0,0,0,0,0,0,0,0,0,0,0,0,0,0,0,0,0,0,0,0,0,0,0],"sum_hessian":[8.6705975E2,8.581583E2,8.901469E0,4.4790354E0,8.5367926E2,7.292554E0,1.6089151E0,3.3938286E0,1.0852066E0,9.220969E1,7.614696E2,1.7764765E0,1.6173521E0,8.5637474E1,6.572214E0,7.1001514E2,5.1454453E1,8.29242E1,2.7132673E0,1.7412335E0,4.830981E0,6.940956E2,1.5919545E1,4.7497635E1,3.9568186E0],"tree_param":{"num_deleted":"0","num_feature":"16","num_nodes":"25","size_leaf_vector":"1"}},{"base_weights":[2.9616181E-3,3.1360388E-2,-1.085225E-2,5.615414E-3,3.488803E-1,-7.0606256E-3,-4.1164273E-1,-2.013148E-2,5.226484E-1,6.095544E-1,-2.661474E-1,-7.290111E-2,2.2634052E-2,2.6694077E-1,-3.759484E-1,-2.6205844E-1,3.9399374E-2,3.5783467E-1,7.788537E-2,2.7650288E-1,2.634627E-1,3.24338E-1,-1.2605038E-1,7.0161596E-2,-5.8051284E-2,-6.031049E-2,-1.7238455E-1,2.720928E-2,-7.174352E-2,9.556148E-3,6.267351E-2,1.6733581E-1,-2.691746E-2,-2.2060362E-1,1.7417982E-1,1.318241E-1,-5.318105E-2,1.1020755E-2,4.8193043E-1,-3.0127134E-5,-1.8605071E-1],"categories":[],"categories_nodes":[],"categories_segments":[],"categories_sizes":[],"default_left":[0,0,0,0,0,0,0,0,0,0,0,0,0,0,0,0,0,0,0,0,0,0,0,0,0,0,0,0,0,0,0,0,0,0,0,0,0,0,0,0,0],"id":33,"left_children":[1,3,5,7,9,11,13,15,17,19,-1,21,23,-1,-1,25,27,-1,29,31,-1,33,35,37,39,-1,-1,-1,-1,-1,-1,-1,-1,-1,-1,-1,-1,-1,-1,-1,-1],"loss_changes":[3.394941E-1,2.312836E0,8.8207877E-1,3.5109057E0,7.378429E0,1.131552E0,7.0732045E0,3.6315858E0,3.6357648E0,1.3783193E0,0E0,3.8384583E0,1.5343508E0,0E0,0E0,8.340292E-1,2.917399E0,0E0,4.5150846E-2,1.0337372E0,0E0,6.2669754E0,4.6935287E0,1.2859873E1,4.836478E0,0E0,0E0,0E0,0E0,0E0,0E0,0E0,0E0,0E0,0E0,0E0,0E0,0E0,0E0,0E0,0E0],"parents":[2147483647,0,0,1,1,2,2,3,3,4,4,5,5,6,6,7,7,8,8,9,9,11,11,12,12,15,15,16,16,18,18,19,19,21,21,22,22,23,23,24,24],"right_children":[2,4,6,8,10,12,14,16,18,20,-1,22,24,-1,-1,26,28,-1,30,32,-1,34,36,38,40,-1,-1,-1,-1,-1,-1,-1,-1,-1,-1,-1,-1,-1,-1,-1,-1],"split_conditions":[3E0,1E0,1E0,1E0,1E0,4E0,5E0,1E0,1E0,1E0,-2.661474E-1,1E0,1E0,2.6694077E-1,-3.759484E-1,1E0,1E0,3.5783467E-1,2E0,1E0,2.634627E-1,1E0,1E0,1E0,1E0,-6.031049E-2,-1.7238455E-1,2.720928E-2,-7.174352E-2,9.556148E-3,6.267351E-2,1.6733581E-1,-2.691746E-2,-2.2060362E-1,1.7417982E-1,1.318241E-1,-5.318105E-2,1.1020755E-2,4.8193043E-1,-3.0127134E-5,-1.8605071E-1],"split_indices":[3,6,4,4,4,3,3,11,10,10,0,11,10,0,0,10,8,0,3,11,0,9,9,13,15,0,0,0,0,0,0,0,0,0,0,0,0,0,0,0,0],"split_type":[0,0,0,0,0,0,0,0,0,0,0,0,0,0,0,0,0,0,0,0,0,0,0,0,0,0,0,0,0,0,0,0,0,0,0,0,0,0,0,0,0],"sum_hessian":[8.6353345E2,2.821712E2,5.8136224E2,2.6194965E2,2.0221571E1,5.76922E2,4.4402766E0,2.5043947E2,1.1510169E1,1.7118265E1,3.103306E0,1.788693E2,3.980527E2,1.721117E0,2.7191598E0,4.87841E1,2.0165536E2,3.9207919E0,7.5893774E0,8.54912E0,8.569145E0,2.0505825E1,1.5836346E2,2.5057965E2,1.4747304E2,4.219011E1,6.593991E0,1.7086276E2,3.0792606E1,6.5362153E0,1.0531619E0,4.5394864E0,4.009634E0,3.6291552E0,1.687667E1,1.2523673E1,1.458398E2,2.4624582E2,4.3338265E0,1.3459709E2,1.2875949E1],"tree_param":{"num_deleted":"0","num_feature":"16","num_nodes":"41","size_leaf_vector":"1"}},{"base_weights":[2.3238864E-3,-7.276949E-4,1.3840355E-1,-3.430195E-2,7.495096E-3,8.402279E-2,1.5997963E-1,1.0367553E-1,-3.5918275E-1,-2.3594022E-2,2.2827977E-1,5.8072496E-2,6.572541E-2,-1.2091527E-1,2.8287533E-1,-5.267933E-1,6.824537E-1,5.2047748E-2,-6.978135E-2,6.965102E-1,-2.0852885E-1,1.6540627E-1,1.5713774E-2,-5.440655E-2,1.1734319E-1,9.341155E-2,-2.1629147E-1,-1.707039E-1,1.7338228E-1,1.291483E-1,3.2577986E-1,2.3278194E-2,-3.135274E-2,-4.701721E-2,1.2567812E-2,3.910367E-1,-9.701041E-2,-1.3850781E-1,3.0240877E-2,-1.3098072E-2,9.412537E-2,-2.3081363E-3,3.9083123E-2],"categories":[],"categories_nodes":[],"categories_segments":[],"categories_sizes":[],"default_left":[0,0,0,0,0,0,0,0,0,0,0,0,0,0,0,0,0,0,0,0,0,0,0,0,0,0,0,0,0,0,0,0,0,0,0,0,0,0,0,0,0,0,0],"id":34,"left_children":[1,3,5,7,9,11,-1,13,15,17,19,21,-1,23,25,27,29,31,33,35,37,39,41,-1,-1,-1,-1,-1,-1,-1,-1,-1,-1,-1,-1,-1,-1,-1,-1,-1,-1,-1,-1],"loss_changes":[3.571853E-1,2.3272365E-1,3.6029515E-1,7.4710336E0,4.6537447E0,4.9555928E-2,0E0,4.7501583E0,9.029517E0,2.0807219E0,1.726056E1,7.135412E-2,0E0,1.702022E0,2.0974364E0,2.3503304E0,2.7654433E-1,9.118497E-1,3.5947037E0,2.5565037E1,3.4972215E0,1.531935E-1,3.524183E-2,0E0,0E0,0E0,0E0,0E0,0E0,0E0,0E0,0E0,0E0,0E0,0E0,0E0,0E0,0E0,0E0,0E0,0E0,0E0,0E0],"parents":[2147483647,0,0,1,1,2,2,3,3,4,4,5,5,7,7,8,8,9,9,10,10,11,11,13,13,14,14,15,15,16,16,17,17,18,18,19,19,20,20,21,21,22,22],"right_children":[2,4,6,8,10,12,-1,14,16,18,20,22,-1,24,26,28,30,32,34,36,38,40,42,-1,-1,-1,-1,-1,-1,-1,-1,-1,-1,-1,-1,-1,-1,-1,-1,-1,-1,-1,-1],"split_conditions":[1E0,1E0,1E0,6E0,6E0,1E0,1.5997963E-1,3E0,8E0,3E0,1E0,3E0,6.572541E-2,1E0,1E0,1E0,1E0,1E0,1E0,8E0,7E0,2E0,5E0,-5.440655E-2,1.1734319E-1,9.341155E-2,-2.1629147E-1,-1.707039E-1,1.7338228E-1,1.291483E-1,3.2577986E-1,2.3278194E-2,-3.135274E-2,-4.701721E-2,1.2567812E-2,3.910367E-1,-9.701041E-2,-1.3850781E-1,3.0240877E-2,-1.3098072E-2,9.412537E-2,-2.3081363E-3,3.9083123E-2],"split_indices":[7,11,6,3,3,10,0,3,3,3,10,3,0,6,13,12,10,8,10,3,3,3,3,0,0,0,0,0,0,0,0,0,0,0,0,0,0,0,0,0,0,0,0],"split_type":[0,0,0,0,0,0,0,0,0,0,0,0,0,0,0,0,0,0,0,0,0,0,0,0,0,0,0,0,0,0,0,0,0,0,0,0,0,0,0,0,0,0,0],"sum_hessian":[8.5890985E2,8.410441E2,1.7865728E1,1.6483582E2,6.762083E2,1.6769068E1,1.096662E0,1.1617638E2,4.8659443E1,5.935259E2,8.2682396E1,1.52659025E1,1.5031645E0,5.170271E1,6.447366E1,4.234064E1,6.318803E0,2.249669E2,3.68559E2,3.9618935E1,4.3063465E1,3.4978147E0,1.1768087E1,4.6822E1,4.88071E0,6.3364735E1,1.1089318E0,4.1249153E1,1.0914899E0,5.1621604E0,1.156642E0,1.9384117E2,3.1125732E1,2.0699881E2,1.6156018E2,2.4663343E1,1.495559E1,2.3410913E1,1.9652552E1,1.7446779E0,1.7531369E0,1.0546144E1,1.2219445E0],"tree_param":{"num_deleted":"0","num_feature":"16","num_nodes":"43","size_leaf_vector":"1"}},{"base_weights":[2.5703637E-3,2.4316634E-1,1.1030844E-3,4.144955E-1,-6.26798E-2,-3.6353392E-3,6.809323E-2,2.6154011E-2,1.8683514E-1,1.5226909E-2,-3.086035E-2,9.826878E-3,2.4970712E-1,9.296358E-2,-1.4857934E-2,-7.613805E-2,1.12581864E-1,1.4387208E-1,-2.0853202E-1,9.939076E-2,1.3182378E-2,-2.2063341E-3,-1.6236389E-1,-1.6282183E-1,-1.6343985E-2,1.237204E-1,-3.9895434E-2,-5.7489928E-2,2.3142041E-1,9.7250305E-3,-2.5421134E-1],"categories":[],"categories_nodes":[],"categories_segments":[],"categories_sizes":[],"default_left":[0,0,0,0,0,0,0,0,0,0,0,0,0,0,0,0,0,0,0,0,0,0,0,0,0,0,0,0,0,0,0],"id":35,"left_children":[1,3,5,7,-1,9,11,-1,-1,13,15,17,-1,19,21,23,25,27,29,-1,-1,-1,-1,-1,-1,-1,-1,-1,-1,-1,-1],"loss_changes":[3.0072418E-1,4.8656482E-1,2.695704E-1,2.2384381E-1,0E0,4.0787706E-1,2.490001E0,0E0,0E0,1.0989913E0,2.1195452E0,1.5853467E0,0E0,1.517102E0,1.3358258E0,2.4730496E0,5.825939E0,7.204556E0,3.2015328E0,0E0,0E0,0E0,0E0,0E0,0E0,0E0,0E0,0E0,0E0,0E0,0E0],"parents":[2147483647,0,0,1,1,2,2,3,3,5,5,6,6,9,9,10,10,11,11,13,13,14,14,15,15,16,16,17,17,18,18],"right_children":[2,4,6,8,-1,10,12,-1,-1,14,16,18,-1,20,22,24,26,28,30,-1,-1,-1,-1,-1,-1,-1,-1,-1,-1,-1,-1],"split_conditions":[1E0,1E0,1E0,1E0,-6.26798E-2,1E0,6E0,2.6154011E-2,1.8683514E-1,3E0,5E0,4E0,2.4970712E-1,1E0,1E0,1E0,6E0,1E0,1E0,9.939076E-2,1.3182378E-2,-2.2063341E-3,-1.6236389E-1,-1.6282183E-1,-1.6343985E-2,1.237204E-1,-3.9895434E-2,-5.7489928E-2,2.3142041E-1,9.7250305E-3,-2.5421134E-1],"split_indices":[3,12,12,11,0,10,3,0,0,3,3,3,0,9,4,11,3,10,8,0,0,0,0,0,0,0,0,0,0,0,0],"split_type":[0,0,0,0,0,0,0,0,0,0,0,0,0,0,0,0,0,0,0,0,0,0,0,0,0,0,0,0,0,0,0],"sum_hessian":[8.5161786E2,4.1636314E0,8.474542E2,3.0797086E0,1.0839227E0,7.9235425E2,5.509997E1,1.7493073E0,1.3304013E0,4.6832578E2,3.2402847E2,5.213791E1,2.96206E0,1.3009119E2,3.382346E2,2.4664417E2,7.738431E1,3.2517395E1,1.9620514E1,2.1210552E1,1.0888064E2,3.3448035E2,3.7542336E0,9.873365E0,2.367708E2,3.4537315E1,4.2846996E1,2.1641504E1,1.0875892E1,1.4936297E1,4.684217E0],"tree_param":{"num_deleted":"0","num_feature":"16","num_nodes":"31","size_leaf_vector":"1"}},{"base_weights":[1.7878916E-3,-4.8080083E-2,8.22474E-3,-8.061218E-3,-4.7438872E-1,-2.3242546E-4,1.282705E-1,-6.2212203E-2,3.5750508E-1,-3.9139293E-2,-2.1565253E-1,5.1885014E-3,-2.395436E-1,-2.8115738E-2,4.0232763E-1,-2.8695932E-2,-4.236098E-1,-1.7294477E-1,1.0330455E-1,2.5302062E-2,-2.4255717E-2,1.4494571E-1,-3.2721284E-1,-2.280792E-1,2.4403496E-1,1.2486875E0,-2.957779E-1,-6.889277E-2,9.324124E-3,-9.896367E-3,-2.3070975E-1,7.839938E-2,-7.657895E-4,-7.911316E-2,2.7485369E-3,-1.8038826E-1,2.9366536E-2,-1.7820486E-1,-2.6367692E-2,5.314926E-1,2.1894222E-1,2.3583959E-1,-1.506178E-1],"categories":[],"categories_nodes":[],"categories_segments":[],"categories_sizes":[],"default_left":[0,0,0,0,0,0,0,0,0,0,0,0,0,0,0,0,0,0,0,0,0,0,0,0,0,0,0,0,0,0,0,0,0,0,0,0,0,0,0,0,0,0,0],"id":36,"left_children":[1,3,5,7,9,11,13,15,-1,17,-1,19,21,23,25,27,29,-1,-1,31,33,-1,35,37,-1,39,41,-1,-1,-1,-1,-1,-1,-1,-1,-1,-1,-1,-1,-1,-1,-1,-1],"loss_changes":[2.7324405E-1,1.6565104E0,7.652154E-1,5.920324E0,8.58642E-1,9.159473E-1,2.1373076E0,1.0422634E0,0E0,1.034117E0,0E0,4.0951777E-1,1.1489686E0,5.657616E0,1.1056256E1,9.7691953E-1,9.6168447E-1,0E0,0E0,2.7009084E0,2.2488701E0,0E0,1.753361E0,1.3357157E0,0E0,9.774618E-1,2.787221E0,0E0,0E0,0E0,0E0,0E0,0E0,0E0,0E0,0E0,0E0,0E0,0E0,0E0,0E0,0E0,0E0],"parents":[2147483647,0,0,1,1,2,2,3,3,4,4,5,5,6,6,7,7,9,9,11,11,12,12,13,13,14,14,15,15,16,16,19,19,20,20,22,22,23,23,25,25,26,26],"right_children":[2,4,6,8,10,12,14,16,-1,18,-1,20,22,24,26,28,30,-1,-1,32,34,-1,36,38,-1,40,42,-1,-1,-1,-1,-1,-1,-1,-1,-1,-1,-1,-1,-1,-1,-1,-1],"split_conditions":[2E0,1E0,1E0,1E0,1E0,1E0,1E0,1E0,3.5750508E-1,1E0,-2.1565253E-1,1E0,1E0,5E0,4E0,1E0,1E0,-1.7294477E-1,1.0330455E-1,1E0,1E0,1.4494571E-1,6E0,1E0,2.4403496E-1,3E0,1E0,-6.889277E-2,9.324124E-3,-9.896367E-3,-2.3070975E-1,7.839938E-2,-7.657895E-4,-7.911316E-2,2.7485369E-3,-1.8038826E-1,2.9366536E-2,-1.7820486E-1,-2.6367692E-2,5.314926E-1,2.1894222E-1,2.3583959E-1,-1.506178E-1],"split_indices":[3,12,12,8,8,15,10,6,0,13,0,10,9,3,3,11,4,0,0,9,9,0,3,11,0,3,9,0,0,0,0,0,0,0,0,0,0,0,0,0,0,0,0],"split_type":[0,0,0,0,0,0,0,0,0,0,0,0,0,0,0,0,0,0,0,0,0,0,0,0,0,0,0,0,0,0,0,0,0,0,0,0,0,0,0,0,0,0,0],"sum_hessian":[8.490152E2,9.632104E1,7.526942E2,8.898652E1,7.334521E0,7.040895E2,4.86047E1,8.605073E1,2.9357903E0,3.0550694E0,4.2794514E0,6.8945026E2,1.4639253E1,3.1517282E1,1.7087416E1,7.973541E1,6.315316E0,1.0627217E0,1.9923478E0,4.0971298E2,2.7973724E2,1.0957146E0,1.3543538E1,2.6055296E1,5.4619875E0,7.3671036E0,9.720312E0,1.7629536E1,6.2105873E1,3.4778655E0,2.8374507E0,4.236315E1,3.6734982E2,3.341427E1,2.4632298E2,7.982439E0,5.561099E0,6.3201556E0,1.973514E1,2.4666889E0,4.900415E0,1.106411E0,8.613901E0],"tree_param":{"num_deleted":"0","num_feature":"16","num_nodes":"43","size_leaf_vector":"1"}},{"base_weights":[1.6397133E-3,-7.554922E-4,1.1005594E-1,-1.6453998E-3,7.3292054E-2,5.4452617E-2,1.1083604E-1,2.9689306E-4,-1.4957769E-1,2.5605926E-2,-1.2144114E-2,-2.1005308E-3,1.1942876E-1,-9.179515E-2,1.5252718E-1,-1.240956E-2,1.0840221E-3],"categories":[],"categories_nodes":[],"categories_segments":[],"categories_sizes":[],"default_left":[0,0,0,0,0,0,0,0,0,0,0,0,0,0,0,0,0],"id":37,"left_children":[1,3,5,7,-1,9,-1,11,13,-1,-1,15,-1,-1,-1,-1,-1],"loss_changes":[2.194717E-1,1.8088222E-1,2.4337204E-1,2.372552E-1,0E0,5.1025663E-2,0E0,7.789297E-1,1.2568669E0,0E0,0E0,1.823223E-1,0E0,0E0,0E0,0E0,0E0],"parents":[2147483647,0,0,1,1,2,2,3,3,5,5,7,7,8,8,11,11],"right_children":[2,4,6,8,-1,10,-1,12,14,-1,-1,16,-1,-1,-1,-1,-1],"split_conditions":[1E0,1.1E1,5E0,1E1,7.3292054E-2,4E0,1.1083604E-1,9E0,1E0,2.5605926E-2,-1.2144114E-2,1E0,1.1942876E-1,-9.179515E-2,1.5252718E-1,-1.240956E-2,1.0840221E-3],"split_indices":[7,3,3,3,0,3,0,3,10,0,0,9,0,0,0,0,0],"split_type":[0,0,0,0,0,0,0,0,0,0,0,0,0,0,0,0,0],"sum_hessian":[8.438447E2,8.265765E2,1.7268261E1,8.2457544E2,2.0010378E0,1.5216449E1,2.0518124E0,8.1487445E2,9.700989E0,1.1555932E1,3.660517E0,8.109816E2,3.892841E0,8.270162E0,1.4308267E0,1.0223187E2,7.087497E2],"tree_param":{"num_deleted":"0","num_feature":"16","num_nodes":"17","size_leaf_vector":"1"}},{"base_weights":[1.5870295E-3,1.9970065E-1,4.277144E-4,3.834831E-1,-6.876236E-2,-4.892874E-2,6.4851786E-3,3.416701E-2,1.6638134E-1,-2.139395E-2,-4.0512115E-1,-6.976192E-4,1.11466624E-1,-6.3803844E-2,2.7717802E-1,4.7683068E-2,-1.9134364E-1,3.38857E-3,-1.9381267E-1,6.47053E-2,2.2602929E-1,-1.1088749E-2,-1.0579257E-1,1.29517205E-2,-2.8017529E-3,1.21967256E-1,-8.228829E-2,6.495094E-2,-4.5611966E-2],"categories":[],"categories_nodes":[],"categories_segments":[],"categories_sizes":[],"default_left":[0,0,0,0,0,0,0,0,0,0,0,0,0,0,0,0,0,0,0,0,0,0,0,0,0,0,0,0,0],"id":38,"left_children":[1,3,5,7,-1,9,11,-1,-1,13,15,17,19,21,-1,-1,-1,23,25,27,-1,-1,-1,-1,-1,-1,-1,-1,-1],"loss_changes":[1.9369161E-1,4.7463685E-1,2.513937E-1,1.1254215E-1,0E0,8.9282674E-1,5.647738E-1,0E0,0E0,3.5218952E0,9.597515E-1,5.5453783E-1,1.3910476E0,6.3513E-1,0E0,0E0,0E0,3.4895477E-1,8.1510603E-1,1.5398116E0,0E0,0E0,0E0,0E0,0E0,0E0,0E0,0E0,0E0],"parents":[2147483647,0,0,1,1,2,2,3,3,5,5,6,6,9,9,10,10,11,11,12,12,13,13,17,17,18,18,19,19],"right_children":[2,4,6,8,-1,10,12,-1,-1,14,16,18,20,22,-1,-1,-1,24,26,28,-1,-1,-1,-1,-1,-1,-1,-1,-1],"split_conditions":[1E0,1E0,2E0,1E0,-6.876236E-2,1E0,1E0,3.416701E-2,1.6638134E-1,1E0,1E0,1E0,6E0,1E0,2.7717802E-1,4.7683068E-2,-1.9134364E-1,3E0,1E0,4E0,2.2602929E-1,-1.1088749E-2,-1.0579257E-1,1.29517205E-2,-2.8017529E-3,1.21967256E-1,-8.228829E-2,6.495094E-2,-4.5611966E-2],"split_indices":[3,15,3,11,0,12,12,0,0,8,10,15,3,6,0,0,0,3,9,3,0,0,0,0,0,0,0,0,0],"split_type":[0,0,0,0,0,0,0,0,0,0,0,0,0,0,0,0,0,0,0,0,0,0,0,0,0,0,0,0,0],"sum_hessian":[8.4269696E2,3.9062507E0,8.387907E2,2.8086746E0,1.097576E0,9.091711E1,7.478736E2,1.7372602E0,1.0714145E0,8.537724E1,5.5398664E0,7.009108E2,4.696275E1,8.260389E1,2.7733507E0,1.7104667E0,3.8293996E0,6.873494E2,1.3561415E1,4.4800247E1,2.162502E0,7.661237E1,5.991519E0,1.6601985E2,5.213296E2,1.1241345E0,1.2437281E1,2.6348293E1,1.8451954E1],"tree_param":{"num_deleted":"0","num_feature":"16","num_nodes":"29","size_leaf_vector":"1"}},{"base_weights":[1.5590121E-3,2.2984848E-3,-8.679387E-2,2.062276E-4,1.200397E-1,1.746132E-1,-7.990969E-4,-2.9213713E-2,1.6072473E-1,1.0089546E-1,-5.8732897E-2,1.06143905E-2,-1.7292242E-2,2.549375E-1,-3.970646E-2,-1.5895216E-3,3.0997245E-2,-6.2219445E-3,1.7078121E-1,2.0332728E-2,9.62444E-2],"categories":[],"categories_nodes":[],"categories_segments":[],"categories_sizes":[],"default_left":[0,0,0,0,0,0,0,0,0,0,0,0,0,0,0,0,0,0,0,0,0],"id":39,"left_children":[1,3,-1,5,7,9,11,13,-1,-1,-1,15,17,19,-1,-1,-1,-1,-1,-1,-1],"loss_changes":[1.8187638E-1,2.0723496E-1,0E0,1.4525637E-1,9.2697245E-1,3.5021907E-1,1.5527876E-1,3.782788E-1,0E0,0E0,0E0,7.198255E-1,6.9399655E-1,2.107115E-2,0E0,0E0,0E0,0E0,0E0,0E0,0E0],"parents":[2147483647,0,0,1,1,3,3,4,4,5,5,6,6,7,7,11,11,12,12,13,13],"right_children":[2,4,-1,6,8,10,12,14,-1,-1,-1,16,18,20,-1,-1,-1,-1,-1,-1,-1],"split_conditions":[1.3E1,9E0,-8.679387E-2,1E0,1E0,1E0,1E0,1E1,1.6072473E-1,1.0089546E-1,-5.8732897E-2,6E0,1E0,1E0,-3.970646E-2,-1.5895216E-3,3.0997245E-2,-6.2219445E-3,1.7078121E-1,2.0332728E-2,9.62444E-2],"split_indices":[3,3,0,3,10,13,10,3,0,0,0,3,1,11,0,0,0,0,0,0,0],"split_type":[0,0,0,0,0,0,0,0,0,0,0,0,0,0,0,0,0,0,0,0,0],"sum_hessian":[8.4148395E2,8.403397E2,1.1442657E0,8.2665186E2,1.3687822E1,3.748001E0,8.229039E2,1.0755844E1,2.9319782E0,2.6730058E0,1.0749953E0,4.8655643E2,3.3634744E2,2.472483E0,8.283361E0,4.160825E2,7.047397E1,3.3534106E2,1.0063529E0,1.171887E0,1.3005959E0],"tree_param":{"num_deleted":"0","num_feature":"16","num_nodes":"21","size_leaf_vector":"1"}},{"base_weights":[1.5816058E-3,7.91315E-4,6.793505E-2,-1.0261408E-3,8.43083E-2,-2.7345264E-2,5.260367E-3,3.580331E-2,9.699665E-2,9.246981E-2,-3.2031268E-1,-1.9426605E-2,1.8994617E-1,1.11493334E-1,7.665779E-3,3.793658E-2,-1.4850384E-1,-1.2917858E-1,1.4012747E-1,-2.5791025E-3,-4.5843642E-2,1.6570069E-1,-3.7569575E-2,-1.6425928E-2,7.3706925E-2,-4.0646517E-3,3.4641698E-2],"categories":[],"categories_nodes":[],"categories_segments":[],"categories_sizes":[],"default_left":[0,0,0,0,0,0,0,0,0,0,0,0,0,0,0,0,0,0,0,0,0,0,0,0,0,0,0],"id":40,"left_children":[1,3,-1,5,7,9,11,13,-1,15,17,19,21,23,25,-1,-1,-1,-1,-1,-1,-1,-1,-1,-1,-1,-1],"loss_changes":[1.4923209E-1,1.2740827E-1,0E0,1.3613717E-1,1.9567907E-1,5.597966E0,3.0324547E0,3.31905E-2,0E0,2.326014E0,4.21902E0,8.4644127E-1,9.026066E0,1.0845418E-1,3.0672919E-2,0E0,0E0,0E0,0E0,0E0,0E0,0E0,0E0,0E0,0E0,0E0,0E0],"parents":[2147483647,0,0,1,1,3,3,4,4,5,5,6,6,7,7,9,9,10,10,11,11,12,12,13,13,14,14],"right_children":[2,4,-1,6,8,10,12,14,-1,16,18,20,22,24,26,-1,-1,-1,-1,-1,-1,-1,-1,-1,-1,-1,-1],"split_conditions":[1.1E1,1E0,6.793505E-2,1E0,1E0,6E0,6E0,3E0,9.699665E-2,1E0,8E0,1E0,1E0,2E0,5E0,3.793658E-2,-1.4850384E-1,-1.2917858E-1,1.4012747E-1,-2.5791025E-3,-4.5843642E-2,1.6570069E-1,-3.7569575E-2,-1.6425928E-2,7.3706925E-2,-4.0646517E-3,3.4641698E-2],"split_indices":[3,7,0,11,10,3,3,3,0,13,3,6,10,3,3,0,0,0,0,0,0,0,0,0,0,0,0],"split_type":[0,0,0,0,0,0,0,0,0,0,0,0,0,0,0,0,0,0,0,0,0,0,0,0,0,0,0],"sum_hessian":[8.3975165E2,8.378107E2,1.9409304E0,8.2093365E2,1.6877045E1,1.5763373E2,6.632999E2,1.4985678E1,1.8913668E0,1.12364365E2,4.526936E1,5.858801E2,7.7419846E1,3.2583275E0,1.172735E1,1.06961464E2,5.4028955E0,4.0105404E1,5.1639557E0,5.428689E2,4.301118E1,3.566269E1,4.1757153E1,1.7197921E0,1.5385355E0,1.0529613E1,1.197738E0],"tree_param":{"num_deleted":"0","num_feature":"16","num_nodes":"27","size_leaf_vector":"1"}},{"base_weights":[1.2508248E-3,3.3531345E-3,-1.3618277E-1,2.3249763E-3,5.8172986E-2,1.4946045E-1,-2.6475167E-1,-8.971528E-4,4.8672304E-2,-1.0634949E-1,5.373278E-2,1.27213E-3,-2.347745E-1,1.3076456E-2,2.0905268E-1,1.190473E-3,-5.036078E-2,1.3677095E-2,-1.6614752E-1],"categories":[],"categories_nodes":[],"categories_segments":[],"categories_sizes":[],"default_left":[0,0,0,0,0,0,0,0,0,0,0,0,0,0,0,0,0,0,0],"id":41,"left_children":[1,3,5,7,-1,-1,9,11,13,-1,-1,15,-1,17,-1,-1,-1,-1,-1],"loss_changes":[2.4238819E-1,1.6132286E-1,1.1628278E0,1.2284103E-1,0E0,0E0,5.0816387E-1,1.3063663E0,1.2245193E0,0E0,0E0,3.512041E-1,0E0,9.7826594E-1,0E0,0E0,0E0,0E0,0E0],"parents":[2147483647,0,0,1,1,2,2,3,3,6,6,7,7,8,8,11,11,13,13],"right_children":[2,4,6,8,-1,-1,10,12,14,-1,-1,16,-1,18,-1,-1,-1,-1,-1],"split_conditions":[1E1,9E0,1E0,1E0,5.8172986E-2,1.4946045E-1,1E0,1E0,6E0,-1.0634949E-1,5.373278E-2,8E0,-2.347745E-1,1E0,2.0905268E-1,1.190473E-3,-5.036078E-2,1.3677095E-2,-1.6614752E-1],"split_indices":[3,3,11,12,0,0,10,13,3,0,0,3,0,6,0,0,0,0,0],"split_type":[0,0,0,0,0,0,0,0,0,0,0,0,0,0,0,0,0,0,0],"sum_hessian":[8.363421E2,8.247023E2,1.1639796E1,8.212832E2,3.419071E0,1.4770021E0,1.0162794E1,7.688148E2,5.2468403E1,8.620999E0,1.5417954E0,7.6768274E2,1.1320534E0,5.070404E1,1.7643628E0,7.565991E2,1.1083648E1,4.882342E1,1.8806206E0],"tree_param":{"num_deleted":"0","num_feature":"16","num_nodes":"19","size_leaf_vector":"1"}},{"base_weights":[7.7719486E-4,-2.781772E-3,7.2981216E-2,1.5371672E-3,-3.0128413E-1,-5.8762035E-3,4.162771E-1,-4.3940707E-3,6.814489E-2,1.262516E-1,-4.4617987E-1,2.0701268E-1,-5.913159E-2,3.8992777E-2,-2.5073811E-2,-2.2210345E-1,2.784326E-1,-1.7120539E-1,4.4355698E-2,5.8853164E-2,-3.428148E-1,-1.502384E-2,2.7173959E-2,-2.6991982E-3,-7.971981E-2,1.1095931E-1,-1.0009139E-1,6.0618356E-2,3.026389E-1,-3.2787915E-2,1.6015671E-1,3.712074E-2,-2.7665558E-1],"categories":[],"categories_nodes":[],"categories_segments":[],"categories_sizes":[],"default_left":[0,0,0,0,0,0,0,0,0,0,0,0,0,0,0,0,0,0,0,0,0,0,0,0,0,0,0,0,0,0,0,0,0],"id":42,"left_children":[1,3,5,7,9,11,-1,13,15,-1,17,-1,19,21,23,25,27,-1,-1,29,31,-1,-1,-1,-1,-1,-1,-1,-1,-1,-1,-1,-1],"loss_changes":[2.1521294E-1,1.029727E0,4.0865064E0,3.1160134E-1,1.3797046E0,1.4532303E0,0E0,6.5100527E-1,3.9980452E0,0E0,8.219973E-1,0E0,1.2358979E0,1.0808815E0,1.8981907E0,1.9490031E0,1.9068363E0,0E0,0E0,2.1754305E0,3.0376687E0,0E0,0E0,0E0,0E0,0E0,0E0,0E0,0E0,0E0,0E0,0E0,0E0],"parents":[2147483647,0,0,1,1,2,2,3,3,4,4,5,5,7,7,8,8,10,10,12,12,13,13,14,14,15,15,16,16,19,19,20,20],"right_children":[2,4,6,8,10,12,-1,14,16,-1,18,-1,20,22,24,26,28,-1,-1,30,32,-1,-1,-1,-1,-1,-1,-1,-1,-1,-1,-1,-1],"split_conditions":[1E0,1E1,6E0,1E0,1E0,1E0,4.162771E-1,3E0,3E0,1.262516E-1,1E0,2.0701268E-1,1E0,2E0,1E0,2E0,1E0,-1.7120539E-1,4.4355698E-2,4E0,4E0,-1.502384E-2,2.7173959E-2,-2.6991982E-3,-7.971981E-2,1.1095931E-1,-1.0009139E-1,6.0618356E-2,3.026389E-1,-3.2787915E-2,1.6015671E-1,3.712074E-2,-2.7665558E-1],"split_indices":[13,3,3,8,11,9,0,3,3,0,10,0,8,3,6,3,12,0,0,3,3,0,0,0,0,0,0,0,0,0,0,0,0],"split_type":[0,0,0,0,0,0,0,0,0,0,0,0,0,0,0,0,0,0,0,0,0,0,0,0,0,0,0,0,0,0,0,0,0],"sum_hessian":[8.3570654E2,7.973655E2,3.834101E1,7.869739E2,1.0391633E1,3.7110455E1,1.2305573E0,7.2348364E2,6.349024E1,1.4183785E0,8.973255E0,1.7880292E0,3.5322426E1,2.332439E2,4.9023975E2,2.6650232E1,3.6840008E1,7.4509044E0,1.5223505E0,2.5506662E1,9.815763E0,8.555337E1,1.4769052E2,4.605139E2,2.9725843E1,3.8579702E0,2.2792261E1,3.4508263E1,2.3317435E0,1.9406769E1,6.0998945E0,5.8729076E0,3.9428556E0],"tree_param":{"num_deleted":"0","num_feature":"16","num_nodes":"33","size_leaf_vector":"1"}},{"base_weights":[1.2660691E-3,-1.8036324E-3,6.449596E-2,1.321536E-3,-2.3716986E-1,-2.858779E-3,3.6272165E-1,-4.6036884E-2,8.39455E-3,1.0638031E-1,-3.658486E-1,-2.3760298E-1,4.0559754E-2,-8.236865E-2,3.6111596E-1,4.089514E-3,3.3941886E-1,-1.4373077E-1,3.6603335E-2,-1.139196E-1,1.17704354E-1,-3.4210503E-2,1.7167422E-1,2.1676645E-3,-3.5759818E-2,1.4617199E-2,2.6677743E-1,5.3654928E-2,-1.6775483E-1],"categories":[],"categories_nodes":[],"categories_segments":[],"categories_sizes":[],"default_left":[0,0,0,0,0,0,0,0,0,0,0,0,0,0,0,0,0,0,0,0,0,0,0,0,0,0,0,0,0],"id":43,"left_children":[1,3,5,7,9,11,-1,13,15,-1,17,-1,19,21,-1,23,25,-1,-1,-1,27,-1,-1,-1,-1,-1,-1,-1,-1],"loss_changes":[1.6204658E-1,5.862751E-1,2.9834366E0,2.6406437E-1,9.250527E-1,1.3171492E0,0E0,4.7506495E0,9.7583145E-1,0E0,5.596539E-1,0E0,1.2281232E0,2.1482341E0,0E0,2.6297972E-1,1.3618511E0,0E0,0E0,0E0,1.4079807E0,0E0,0E0,0E0,0E0,0E0,0E0,0E0,0E0],"parents":[2147483647,0,0,1,1,2,2,3,3,4,4,5,5,7,7,8,8,10,10,12,12,13,13,15,15,16,16,20,20],"right_children":[2,4,6,8,10,12,-1,14,16,-1,18,-1,20,22,-1,24,26,-1,-1,-1,28,-1,-1,-1,-1,-1,-1,-1,-1],"split_conditions":[1E0,1E1,6E0,1E0,1E0,1E0,3.6272165E-1,1E0,1E0,1.0638031E-1,1E0,-2.3760298E-1,1E0,1E0,3.6111596E-1,1E0,1E0,-1.4373077E-1,3.6603335E-2,-1.139196E-1,1E0,-3.4210503E-2,1.7167422E-1,2.1676645E-3,-3.5759818E-2,1.4617199E-2,2.6677743E-1,5.3654928E-2,-1.6775483E-1],"split_indices":[13,3,3,9,11,12,0,6,12,0,10,0,11,8,0,4,8,0,0,0,6,0,0,0,0,0,0,0,0],"split_type":[0,0,0,0,0,0,0,0,0,0,0,0,0,0,0,0,0,0,0,0,0,0,0,0,0,0,0,0,0],"sum_hessian":[8.332754E2,7.9562085E2,3.7654537E1,7.8617645E2,9.444385E0,3.65039E1,1.1506382E0,1.0144272E2,6.8473376E2,1.3732662E0,8.071118E0,1.0045458E0,3.549935E1,9.948469E1,1.9580336E0,6.769423E2,7.7914133E0,6.5650315E0,1.5060866E0,4.897101E0,3.0602251E1,9.568197E1,3.8027158E0,6.610685E2,1.5873856E1,5.8089113E0,1.982502E0,2.8741695E1,1.8605546E0],"tree_param":{"num_deleted":"0","num_feature":"16","num_nodes":"29","size_leaf_vector":"1"}},{"base_weights":[1.6037066E-3,8.212372E-4,7.3312774E-2,-1.0033531E-2,1.3611353E-2,-1.9580519E-2,2.6189572E-1,2.2341853E-2,-7.504791E-1,1.3969525E-3,-5.1651735E-2,4.485913E-1,-1.692377E-1,1.9318279E-2,1.6675611E-1,-9.277092E-2,-2.8902262E-1,-8.081746E-3,1.1408773E-1,4.7601763E-2,-2.4403187E-2,3.0117399E-1,2.5317748E-3,3.8168975E-3,6.451531E-2],"categories":[],"categories_nodes":[],"categories_segments":[],"categories_sizes":[],"default_left":[0,0,0,0,0,0,0,0,0,0,0,0,0,0,0,0,0,0,0,0,0,0,0,0,0],"id":44,"left_children":[1,3,-1,5,7,9,11,13,15,17,19,21,-1,23,-1,-1,-1,-1,-1,-1,-1,-1,-1,-1,-1],"loss_changes":[1.5794335E-1,1.1548426E-1,0E0,1.1733606E0,2.5639725E0,2.9317385E-1,2.6175218E0,5.9981924E-1,1.10073805E-1,2.8485072E0,1.0889428E0,3.1844158E0,0E0,4.844538E-1,0E0,0E0,0E0,0E0,0E0,0E0,0E0,0E0,0E0,0E0,0E0],"parents":[2147483647,0,0,1,1,3,3,4,4,5,5,6,6,7,7,8,8,9,9,10,10,11,11,13,13],"right_children":[2,4,-1,6,8,10,12,14,16,18,20,22,-1,24,-1,-1,-1,-1,-1,-1,-1,-1,-1,-1,-1],"split_conditions":[1.1E1,4E0,7.3312774E-2,1E0,1E0,3E0,1E0,1E0,8E0,1E0,1E0,1E0,-1.692377E-1,1E0,1.6675611E-1,-9.277092E-2,-2.8902262E-1,-8.081746E-3,1.1408773E-1,4.7601763E-2,-2.4403187E-2,3.0117399E-1,2.5317748E-3,3.8168975E-3,6.451531E-2],"split_indices":[3,3,0,4,4,3,6,1,3,6,11,10,0,13,0,0,0,0,0,0,0,0,0,0,0],"split_type":[0,0,0,0,0,0,0,0,0,0,0,0,0,0,0,0,0,0,0,0,0,0,0,0,0],"sum_hessian":[8.3150433E2,8.298331E2,1.6712195E0,4.4899432E2,3.8083884E2,4.3466205E2,1.4332274E1,3.774963E2,3.3425138E0,2.6335834E2,1.713037E2,1.2062793E1,2.2694817E0,3.7639935E2,1.0969611E0,1.8861789E0,1.4563351E0,2.4589752E2,1.746081E1,2.0654438E1,1.5064926E2,4.767278E0,7.2955146E0,3.6516016E2,1.1239203E1],"tree_param":{"num_deleted":"0","num_feature":"16","num_nodes":"25","size_leaf_vector":"1"}},{"base_weights":[1.334377E-3,-3.7733838E-4,8.0077305E-2,-2.8203951E-2,6.274816E-3,3.830122E-2,8.782204E-2,5.46867E-2,-2.3673323E-1,-1.4437242E-2,1.6255651E-1,1.8972613E-2,-1.0651619E-2,9.351318E-2,-3.3715945E-1,-3.243965E-1,3.447304E-1,2.8248206E-2,-4.0996958E-2,4.900921E-1,-1.0955073E-1,3.748442E-2,-1.5350564E-1,-1.17100544E-1,1.249677E-3,1.8727958E-1,-1.1124912E-1,1.4634149E-1,-5.5664986E-2,1.558776E-2,-3.701787E-2,-2.9549424E-2,9.578981E-3,2.5740606E-1,-6.225458E-2,-7.978377E-2,2.5419135E-2],"categories":[],"categories_nodes":[],"categories_segments":[],"categories_sizes":[],"default_left":[0,0,0,0,0,0,0,0,0,0,0,0,0,0,0,0,0,0,0,0,0,0,0,0,0,0,0,0,0,0,0,0,0,0,0,0,0],"id":45,"left_children":[1,3,5,7,9,11,-1,13,15,17,19,-1,-1,21,23,25,27,29,31,33,35,-1,-1,-1,-1,-1,-1,-1,-1,-1,-1,-1,-1,-1,-1,-1,-1],"loss_changes":[1.1183803E-1,1.50645E-1,1.4562313E-1,2.7269373E0,2.12854E0,3.1523906E-2,0E0,1.7532232E0,2.3978665E0,6.597432E-1,6.911665E0,0E0,0E0,2.0376287E0,1.907388E-1,1.9709282E0,5.7307386E-1,8.096819E-1,1.5064863E0,9.187227E0,1.3244444E0,0E0,0E0,0E0,0E0,0E0,0E0,0E0,0E0,0E0,0E0,0E0,0E0,0E0,0E0,0E0,0E0],"parents":[2147483647,0,0,1,1,2,2,3,3,4,4,5,5,7,7,8,8,9,9,10,10,13,13,14,14,15,15,16,16,17,17,18,18,19,19,20,20],"right_children":[2,4,6,8,10,12,-1,14,16,18,20,-1,-1,22,24,26,28,30,32,34,36,-1,-1,-1,-1,-1,-1,-1,-1,-1,-1,-1,-1,-1,-1,-1,-1],"split_conditions":[1E0,1E0,5E0,6E0,6E0,4E0,8.782204E-2,1E0,8E0,3E0,1E0,1.8972613E-2,-1.0651619E-2,1E0,4E0,1E0,1E0,1E0,1E0,8E0,7E0,3.748442E-2,-1.5350564E-1,-1.17100544E-1,1.249677E-3,1.8727958E-1,-1.1124912E-1,1.4634149E-1,-5.5664986E-2,1.558776E-2,-3.701787E-2,-2.9549424E-2,9.578981E-3,2.5740606E-1,-6.225458E-2,-7.978377E-2,2.5419135E-2],"split_indices":[7,11,3,3,3,3,0,10,3,3,10,0,0,13,3,9,15,8,10,3,3,0,0,0,0,0,0,0,0,0,0,0,0,0,0,0,0],"split_type":[0,0,0,0,0,0,0,0,0,0,0,0,0,0,0,0,0,0,0,0,0,0,0,0,0,0,0,0,0,0,0,0,0,0,0,0,0],"sum_hessian":[8.285241E2,8.1187085E2,1.6653255E1,1.5601308E2,6.558578E2,1.4905317E1,1.7479395E0,1.1216506E2,4.3848003E1,5.799098E2,7.594799E1,1.124764E1,3.657677E0,1.0274575E2,9.419318E0,3.84876E1,5.3604064E0,2.2240616E2,3.575036E2,3.4100323E1,4.184767E1,9.842686E1,4.3188887E0,8.025432E0,1.3938857E0,1.2152581E0,3.727234E1,4.284507E0,1.0758995E0,1.9290102E2,2.9505144E1,1.9969681E2,1.5780681E2,2.2174976E1,1.1925346E1,2.2980022E1,1.886765E1],"tree_param":{"num_deleted":"0","num_feature":"16","num_nodes":"37","size_leaf_vector":"1"}},{"base_weights":[1.1353252E-3,1.7309184E-3,-7.242798E-2,1.771229E-4,1.03680044E-1,-3.156392E-2,4.332681E-3,6.4723147E-3,1.0738744E-1,-9.129381E-4,-3.8706425E-1,-3.7006776E-5,7.031315E-2,1.0150371E-1,-1.0087539E-2,-9.597885E-3,2.0774756E-1,-2.2537734E-1,-2.6968429E-2,5.904324E-4,-2.0208195E-1,3.1259533E-2,-1.371572E-1,-2.1721605E-2,6.7893304E-2],"categories":[],"categories_nodes":[],"categories_segments":[],"categories_sizes":[],"default_left":[0,0,0,0,0,0,0,0,0,0,0,0,0,0,0,0,0,0,0,0,0,0,0,0,0],"id":46,"left_children":[1,3,-1,5,7,9,11,13,-1,15,17,19,21,23,-1,-1,-1,-1,-1,-1,-1,-1,-1,-1,-1],"loss_changes":[1.1939159E-1,1.3027294E-1,0E0,1.0712995E-1,3.0284405E-1,1.0241748E0,2.0705077E-1,4.132706E-2,0E0,1.9092345E0,7.399337E-1,9.123322E-1,8.449589E-1,8.5870706E-2,0E0,0E0,0E0,0E0,0E0,0E0,0E0,0E0,0E0,0E0,0E0],"parents":[2147483647,0,0,1,1,3,3,4,4,5,5,6,6,7,7,9,9,10,10,11,11,12,12,13,13],"right_children":[2,4,-1,6,8,10,12,14,-1,16,18,20,22,24,-1,-1,-1,-1,-1,-1,-1,-1,-1,-1,-1],"split_conditions":[1.2E1,9E0,-7.242798E-2,2E0,1E0,1E0,1E0,1E1,1.0738744E-1,1E0,1E0,1E0,1E0,1E0,-1.0087539E-2,-9.597885E-3,2.0774756E-1,-2.2537734E-1,-2.6968429E-2,5.904324E-4,-2.0208195E-1,3.1259533E-2,-1.371572E-1,-2.1721605E-2,6.7893304E-2],"split_indices":[3,3,0,3,10,12,12,3,0,8,13,13,6,11,0,0,0,0,0,0,0,0,0,0,0],"split_type":[0,0,0,0,0,0,0,0,0,0,0,0,0,0,0,0,0,0,0,0,0,0,0,0,0],"sum_hessian":[8.225284E2,8.215041E2,1.02428E0,8.101583E2,1.1345798E1,9.3024185E1,7.171341E2,8.949829E0,2.3959682E0,8.6563324E1,6.460859E0,6.7352783E2,4.3606285E1,2.2012992E0,6.74853E0,8.376274E1,2.8005798E0,2.2164557E0,4.2444034E0,6.725229E2,1.0049212E0,4.1728252E1,1.8780309E0,1.0951532E0,1.1061461E0],"tree_param":{"num_deleted":"0","num_feature":"16","num_nodes":"25","size_leaf_vector":"1"}},{"base_weights":[3.9916782E-4,-3.0097977E-4,6.685687E-2,-2.408793E-3,4.328593E-2,5.0707994E-4,-2.9810238E-1,-1.5337383E-2,3.1627622E-1,7.243898E-2,-6.163661E-4,-1.2627499E-1,7.173994E-2,9.845948E-2,-2.65773E-1,-1.4330652E-3,1.4133862E-2,-1.4398928E-2,1.5215403E-1,6.953616E-2,-1.7523077E-1],"categories":[],"categories_nodes":[],"categories_segments":[],"categories_sizes":[],"default_left":[0,0,0,0,0,0,0,0,0,0,0,0,0,0,0,0,0,0,0,0,0],"id":47,"left_children":[1,3,-1,5,7,9,11,13,-1,-1,15,-1,-1,17,19,-1,-1,-1,-1,-1,-1],"loss_changes":[1.2819591E-1,7.553757E-2,0E0,6.762349E-1,2.263945E0,2.1061222E-1,6.0597295E-1,1.0758818E0,0E0,0E0,1.5409629E-1,0E0,0E0,1.584008E0,2.0009181E0,0E0,0E0,0E0,0E0,0E0,0E0],"parents":[2147483647,0,0,1,1,3,3,4,4,5,5,6,6,7,7,10,10,13,13,14,14],"right_children":[2,4,-1,6,8,10,12,14,-1,-1,16,-1,-1,18,20,-1,-1,-1,-1,-1,-1],"split_conditions":[1.1E1,1E0,6.685687E-2,1E1,6E0,1E0,1E0,1E0,3.1627622E-1,7.243898E-2,1E0,-1.2627499E-1,7.173994E-2,4E0,3E0,-1.4330652E-3,1.4133862E-2,-1.4398928E-2,1.5215403E-1,6.953616E-2,-1.7523077E-1],"split_indices":[3,13,0,3,3,3,10,8,0,0,8,0,0,3,3,0,0,0,0,0,0],"split_type":[0,0,0,0,0,0,0,0,0,0,0,0,0,0,0,0,0,0,0,0,0],"sum_hessian":[8.2164246E2,8.200601E2,1.5823597E0,7.831334E2,3.6926704E1,7.764748E2,6.658633E0,3.5833637E1,1.0930667E0,2.6106608E0,7.7386414E2,5.5959015E0,1.0627319E0,2.5055412E1,1.0778224E1,7.126435E2,6.1220623E1,1.9095526E1,5.959886E0,4.31133E0,6.4668946E0],"tree_param":{"num_deleted":"0","num_feature":"16","num_nodes":"21","size_leaf_vector":"1"}},{"base_weights":[7.623767E-4,1.3519307E-3,-7.1638875E-2,-3.235175E-4,1.1808171E-1,9.856921E-4,-8.394155E-2,5.2597735E-2,8.1878915E-2,-1.2044263E-3,1.0420442E-1,-1.6538501E-1,1.0778089E-1,8.5807756E-2,9.265433E-3,-2.3960313E-3,1.4957287E-2,7.316343E-2,-2.8099886E-1,6.921431E-2,-8.858636E-2,-1.8076021E-2,5.7877686E-2],"categories":[],"categories_nodes":[],"categories_segments":[],"categories_sizes":[],"default_left":[0,0,0,0,0,0,0,0,0,0,0,0,0,0,0,0,0,0,0,0,0,0,0],"id":48,"left_children":[1,3,-1,5,7,9,11,13,-1,15,17,19,-1,21,-1,-1,-1,-1,-1,-1,-1,-1,-1],"loss_changes":[1.1636392E-1,1.605283E-1,0E0,8.875555E-2,1.03415534E-1,1.8063428E-1,5.105605E-1,4.128987E-3,0E0,2.7153E-1,2.6420667E0,6.4662087E-1,0E0,6.0976155E-2,0E0,0E0,0E0,0E0,0E0,0E0,0E0,0E0,0E0],"parents":[2147483647,0,0,1,1,3,3,4,4,5,5,6,6,7,7,9,9,10,10,11,11,13,13],"right_children":[2,4,-1,6,8,10,12,14,-1,16,18,20,-1,22,-1,-1,-1,-1,-1,-1,-1,-1,-1],"split_conditions":[1.2E1,9E0,-7.1638875E-2,8E0,1E0,1E0,1E0,1E1,8.1878915E-2,6E0,5E0,1E0,1.0778089E-1,1E0,9.265433E-3,-2.3960313E-3,1.4957287E-2,7.316343E-2,-2.8099886E-1,6.921431E-2,-8.858636E-2,-1.8076021E-2,5.7877686E-2],"split_indices":[3,3,0,3,10,4,8,3,0,3,3,11,0,11,0,0,0,0,0,0,0,0,0],"split_type":[0,0,0,0,0,0,0,0,0,0,0,0,0,0,0,0,0,0,0,0,0,0,0],"sum_hessian":[8.206303E2,8.196076E2,1.0226986E0,8.0899316E2,1.06144285E1,7.97495E2,1.1498188E1,8.401272E0,2.213157E0,7.8189294E2,1.5602052E1,1.0242837E1,1.2553515E0,2.1543198E0,6.246952E0,6.909595E2,9.093348E1,1.4431227E1,1.1708248E0,2.337941E0,7.904896E0,1.0965782E0,1.0577416E0],"tree_param":{"num_deleted":"0","num_feature":"16","num_nodes":"23","size_leaf_vector":"1"}},{"base_weights":[4.9581047E-4,-1.4326301E-4,6.159372E-2,-3.1453766E-2,3.874005E-3,-5.5516525E-3,-3.3855742E-1,5.7568384E-4,5.5004314E-2,-2.9076518E-2,1.6001289E-1,3.5165053E-2,-1.8005274E-1,4.5021987E-3,-1.9308572E-1,-5.1956497E-2,2.4079674E-1,-5.3640887E-2,5.600267E-3,-5.2359007E-2,5.1967047E-2,-2.6158572E-4,2.3227584E-2,1.0636525E-1,-8.118971E-2,-5.672099E-2,2.0561339E-1,2.2682728E-1,-7.562064E-2],"categories":[],"categories_nodes":[],"categories_segments":[],"categories_sizes":[],"default_left":[0,0,0,0,0,0,0,0,0,0,0,0,0,0,0,0,0,0,0,0,0,0,0,0,0,0,0,0,0],"id":49,"left_children":[1,3,-1,5,7,9,11,13,15,17,-1,19,-1,21,23,25,27,-1,-1,-1,-1,-1,-1,-1,-1,-1,-1,-1,-1],"loss_changes":[1.07524864E-1,1.0322498E-1,0E0,7.404493E-1,1.22635424E-1,1.1195052E0,7.2917897E-1,5.212245E-1,8.88242E-1,6.065646E-1,0E0,1.4391288E-1,0E0,2.6329997E-1,6.744204E-1,3.0401516E0,4.324732E0,0E0,0E0,0E0,0E0,0E0,0E0,0E0,0E0,0E0,0E0,0E0,0E0],"parents":[2147483647,0,0,1,1,3,3,4,4,5,5,6,6,7,7,8,8,9,9,11,11,13,13,14,14,15,15,16,16],"right_children":[2,4,-1,6,8,10,12,14,16,18,-1,20,-1,22,24,26,28,-1,-1,-1,-1,-1,-1,-1,-1,-1,-1,-1,-1],"split_conditions":[1.1E1,2E0,6.159372E-2,1E0,1E0,1E0,1E0,1E0,1E0,1E0,1.6001289E-1,1E0,-1.8005274E-1,1E0,1E0,5E0,4E0,-5.3640887E-2,5.600267E-3,-5.2359007E-2,5.1967047E-2,-2.6158572E-4,2.3227584E-2,1.0636525E-1,-8.118971E-2,-5.672099E-2,2.0561339E-1,2.2682728E-1,-7.562064E-2],"split_indices":[3,3,0,12,12,8,8,15,10,11,0,3,0,6,9,3,3,0,0,0,0,0,0,0,0,0,0,0,0],"split_type":[0,0,0,0,0,0,0,0,0,0,0,0,0,0,0,0,0,0,0,0,0,0,0,0,0,0,0,0,0],"sum_hessian":[8.2024774E2,8.186925E2,1.555203E0,9.232032E1,7.263722E2,8.607828E1,6.2420416E0,6.8330475E2,4.306746E1,8.338449E1,2.6937876E0,2.9267535E0,3.3152883E0,6.706833E2,1.2621455E1,2.7789425E1,1.5278036E1,1.9496868E1,6.388762E1,1.0570459E0,1.8697075E0,6.255693E2,4.511401E1,1.1224669E0,1.1498988E1,2.4059025E1,3.730399E0,7.2079773E0,8.070059E0],"tree_param":{"num_deleted":"0","num_feature":"16","num_nodes":"29","size_leaf_vector":"1"}},{"base_weights":[7.1838987E-4,1.2973774E-3,-7.021498E-2,-9.470122E-3,1.4042471E-2,-4.5571514E-4,-7.533647E-2,2.1470048E-2,-6.352238E-1,1.8036615E-2,-1.9981948E-1,-1.6787249E-1,3.2060307E-1,1.3811809E-2,1.5344904E-1,-7.576908E-2,-2.4986164E-1,3.5522801E-3,5.852059E-2,3.880711E-2,-1.9427675E-1,-6.408027E-2,1.3666378E-2,2.650644E-4,1.7685233E-1,1.0284556E-1,-1.5533204E-1],"categories":[],"categories_nodes":[],"categories_segments":[],"categories_sizes":[],"default_left":[0,0,0,0,0,0,0,0,0,0,0,0,0,0,0,0,0,0,0,0,0,0,0,0,0,0,0],"id":50,"left_children":[1,3,-1,5,7,9,11,13,15,17,19,21,-1,23,25,-1,-1,-1,-1,-1,-1,-1,-1,-1,-1,-1,-1],"loss_changes":[1.1160197E-1,1.1235976E-1,0E0,2.6351786E-1,1.821602E0,1.4467648E0,5.8356075E0,3.7349755E-1,1.1282802E-1,3.9160728E-1,4.9935613E0,5.0059986E-1,0E0,2.6219163E0,2.755621E0,0E0,0E0,0E0,0E0,0E0,0E0,0E0,0E0,0E0,0E0,0E0,0E0],"parents":[2147483647,0,0,1,1,3,3,4,4,5,5,6,6,7,7,8,8,9,9,10,10,11,11,13,13,14,14],"right_children":[2,4,-1,6,8,10,12,14,16,18,20,22,-1,24,26,-1,-1,-1,-1,-1,-1,-1,-1,-1,-1,-1,-1],"split_conditions":[1.2E1,4E0,-7.021498E-2,1E0,1E0,1E0,1E0,1E0,8E0,1E0,3E0,1E0,3.2060307E-1,1E0,1E0,-7.576908E-2,-2.4986164E-1,3.5522801E-3,5.852059E-2,3.880711E-2,-1.9427675E-1,-6.408027E-2,1.3666378E-2,2.650644E-4,1.7685233E-1,1.0284556E-1,-1.5533204E-1],"split_indices":[3,3,0,8,4,6,6,8,3,4,3,12,0,13,13,0,0,0,0,0,0,0,0,0,0,0,0],"split_type":[0,0,0,0,0,0,0,0,0,0,0,0,0,0,0,0,0,0,0,0,0,0,0,0,0,0,0],"sum_hessian":[8.1780396E2,8.1678406E2,1.0198857E0,4.428803E2,3.7390378E2,3.9045053E2,5.2429775E1,3.706307E2,3.2730663E0,3.5814014E2,3.231038E1,4.929565E1,3.1341264E0,3.5134796E2,1.9282732E1,1.8905942E0,1.3824722E0,3.4706076E2,1.1079379E1,1.9030947E1,1.3279433E1,4.0596684E1,8.698965E0,3.4461066E2,6.737302E0,1.5421254E1,3.8614776E0],"tree_param":{"num_deleted":"0","num_feature":"16","num_nodes":"27","size_leaf_vector":"1"}},{"base_weights":[2.0373325E-4,-3.3276714E-2,4.4885543E-3,-1.705578E-1,6.1528967E-3,3.8144877E-3,5.846274E-2,-2.2868045E-1,1.52241E-1,2.8601998E-1,-5.760261E-2,2.8903948E-2,6.073666E-4,2.7438006E-1,-1.8290946E-1,3.2711276E-1,-2.718946E-2,-2.0189416E-2,-1.6596612E-1,-2.60222E-2,3.1217068E-1,6.791625E-3,-9.118862E-2,2.740392E-2,1.7104317E-1,1.206947E-1,7.122274E-3,3.5904538E-2,-3.855963E-2,4.441019E-2,-8.7994576E-2,5.42692E-4,1.3913289E-1,-1.5714753E-1,1.7240308E-3],"categories":[],"categories_nodes":[],"categories_segments":[],"categories_sizes":[],"default_left":[0,0,0,0,0,0,0,0,0,0,0,0,0,0,0,0,0,0,0,0,0,0,0,0,0,0,0,0,0,0,0,0,0,0,0],"id":51,"left_children":[1,3,5,7,9,11,-1,-1,13,15,17,19,21,23,-1,25,-1,27,-1,29,-1,31,33,-1,-1,-1,-1,-1,-1,-1,-1,-1,-1,-1,-1],"loss_changes":[1.1722368E-1,5.028926E-1,9.221865E-2,4.073959E0,1.3188426E0,5.8145873E-2,0E0,0E0,1.4925896E0,2.4184787E-1,1.10658E0,4.578286E0,3.6504042E-1,6.49677E-1,0E0,2.774197E-1,0E0,8.804772E-1,0E0,3.7031293E0,0E0,1.3707092E0,1.705126E0,0E0,0E0,0E0,0E0,0E0,0E0,0E0,0E0,0E0,0E0,0E0,0E0],"parents":[2147483647,0,0,1,1,2,2,3,3,4,4,5,5,8,8,9,9,10,10,11,11,12,12,13,13,15,15,17,17,19,19,21,21,22,22],"right_children":[2,4,6,8,10,12,-1,-1,14,16,18,20,22,24,-1,26,-1,28,-1,30,-1,32,34,-1,-1,-1,-1,-1,-1,-1,-1,-1,-1,-1,-1],"split_conditions":[2E0,1E0,1.1E1,1E0,1E0,1E0,5.846274E-2,-2.2868045E-1,1E0,1E0,1E0,1E0,1E0,1E0,-1.8290946E-1,1E0,-2.718946E-2,1E0,-1.6596612E-1,1E0,3.1217068E-1,1E0,1E0,2.740392E-2,1.7104317E-1,1.206947E-1,7.122274E-3,3.5904538E-2,-3.855963E-2,4.441019E-2,-8.7994576E-2,5.42692E-4,1.3913289E-1,-1.5714753E-1,1.7240308E-3],"split_indices":[3,9,3,11,11,9,0,0,12,10,6,8,15,10,0,6,0,10,0,10,0,12,11,0,0,0,0,0,0,0,0,0,0,0,0],"split_type":[0,0,0,0,0,0,0,0,0,0,0,0,0,0,0,0,0,0,0,0,0,0,0,0,0,0,0,0,0,0,0,0,0,0,0],"sum_hessian":[8.150892E2,9.171176E1,7.2337744E2,1.9721676E1,7.199009E1,7.218418E2,1.5356474E0,6.480705E0,1.3240971E1,1.2710165E1,5.9279922E1,8.090508E1,6.409367E2,1.1963164E1,1.277806E0,1.1578475E1,1.1316907E0,5.6086777E1,3.1931431E0,7.766283E1,3.2422562E0,6.0135004E2,3.9586697E1,8.198418E0,3.764747E0,9.017082E0,2.5613923E0,2.443559E1,3.1651188E1,4.7304924E1,3.0357899E1,5.958571E2,5.492865E0,6.440037E0,3.314666E1],"tree_param":{"num_deleted":"0","num_feature":"16","num_nodes":"35","size_leaf_vector":"1"}},{"base_weights":[-1.7614612E-4,3.9094628E-4,-6.854714E-2,-1.0700523E-3,1.0340321E-1,-3.9416933E-3,4.6047848E-2,7.492087E-2,1.1507813E-2,-5.8006827E-4,-1.8599649E-1,1.1299683E-1,-2.0261231E-1,5.620095E-4,-4.7952916E-2,2.1855807E-1,-1.1679381E-1,1.9580133E-1,1.7114416E-2],"categories":[],"categories_nodes":[],"categories_segments":[],"categories_sizes":[],"default_left":[0,0,0,0,0,0,0,0,0,0,0,0,0,0,0,0,0,0,0],"id":52,"left_children":[1,3,-1,5,7,9,11,-1,-1,13,15,17,-1,-1,-1,-1,-1,-1,-1],"loss_changes":[1.0538438E-1,1.22351535E-1,0E0,1.0867757E-1,9.8629035E-2,4.630031E-1,2.3048797E0,0E0,0E0,2.910112E-1,2.833991E0,1.2635231E0,0E0,0E0,0E0,0E0,0E0,0E0,0E0],"parents":[2147483647,0,0,1,1,3,3,4,4,5,5,6,6,9,9,10,10,11,11],"right_children":[2,4,-1,6,8,10,12,-1,-1,14,16,18,-1,-1,-1,-1,-1,-1,-1],"split_conditions":[1.2E1,9E0,-6.854714E-2,1E0,1E0,1E0,1E0,7.492087E-2,1.1507813E-2,8E0,1E0,1E0,-2.0261231E-1,5.620095E-4,-4.7952916E-2,2.1855807E-1,-1.1679381E-1,1.9580133E-1,1.7114416E-2],"split_indices":[3,3,0,15,11,12,6,0,0,3,11,9,0,0,0,0,0,0,0],"split_type":[0,0,0,0,0,0,0,0,0,0,0,0,0,0,0,0,0,0,0],"sum_hessian":[8.1224426E2,8.112276E2,1.0166584E0,8.008588E2,1.0368779E1,7.5571735E2,4.5141502E1,2.3168705E0,8.0519085E0,7.430011E2,1.2716261E1,4.2079807E1,3.0616956E0,7.327021E2,1.029898E1,1.8430295E0,1.0873232E1,2.9508457E0,3.912896E1],"tree_param":{"num_deleted":"0","num_feature":"16","num_nodes":"19","size_leaf_vector":"1"}},{"base_weights":[-2.9746381E-5,-6.028628E-4,5.5422276E-2,-2.8821584E-2,3.0093826E-3,-4.5583647E-2,2.4081703E-1,1.0706893E-3,4.480629E-2,-2.8431192E-2,-1.7835581E-1,6.8182844E-1,-1.1032721E-1,3.8068858E-3,-7.851406E-2,-9.881543E-3,2.5504002E-1,-1.4959817E-2,1.4352964E-1,-5.275316E-2,3.334786E-1,1.8282033E-3,-3.4363333E-2,2.1196477E-1,-1.807068E-2],"categories":[],"categories_nodes":[],"categories_segments":[],"categories_sizes":[],"default_left":[0,0,0,0,0,0,0,0,0,0,0,0,0,0,0,0,0,0,0,0,0,0,0,0,0],"id":53,"left_children":[1,3,-1,5,7,9,11,13,15,17,-1,19,-1,21,-1,23,-1,-1,-1,-1,-1,-1,-1,-1,-1],"loss_changes":[8.620291E-2,8.2802445E-2,0E0,4.276126E-1,5.83181E-2,8.081651E-1,1.7414469E0,4.966847E-1,1.4135132E0,9.5845747E-1,0E0,1.511689E0,0E0,1.8564767E-1,0E0,1.1559829E0,0E0,0E0,0E0,0E0,0E0,0E0,0E0,0E0,0E0],"parents":[2147483647,0,0,1,1,3,3,4,4,5,5,6,6,7,7,8,8,9,9,11,11,13,13,15,15],"right_children":[2,4,-1,6,8,10,12,14,16,18,-1,20,-1,22,-1,24,-1,-1,-1,-1,-1,-1,-1,-1,-1],"split_conditions":[1.1E1,2E0,5.5422276E-2,1E0,1E0,1E0,1E0,1E1,6E0,1E0,-1.7835581E-1,1E0,-1.1032721E-1,1E0,-7.851406E-2,1E0,2.5504002E-1,-1.4959817E-2,1.4352964E-1,-5.275316E-2,3.334786E-1,1.8282033E-3,-3.4363333E-2,2.1196477E-1,-1.807068E-2],"split_indices":[3,3,0,15,13,12,8,3,3,8,0,3,0,15,0,9,0,0,0,0,0,0,0,0,0],"split_type":[0,0,0,0,0,0,0,0,0,0,0,0,0,0,0,0,0,0,0,0,0,0,0,0,0],"sum_hessian":[8.1198895E2,8.104718E2,1.5171614E0,9.118208E1,7.1928973E2,8.6627815E1,4.5542655E0,6.883855E2,3.0904222E1,8.502292E1,1.6048958E0,2.5708766E0,1.9833891E0,6.82267E2,6.1184773E0,2.9863962E1,1.0402603E0,8.2438286E1,2.5846338E0,1.055429E0,1.5154475E0,6.7026276E2,1.2004237E1,1.1053641E0,2.8758596E1],"tree_param":{"num_deleted":"0","num_feature":"16","num_nodes":"25","size_leaf_vector":"1"}},{"base_weights":[5.457483E-4,1.0983732E-3,-6.6682085E-2,-3.621963E-4,1.0655969E-1,-2.7632273E-3,3.950584E-2,4.4809695E-2,7.531324E-2,-9.185913E-4,-1.07211985E-1,9.203782E-2,-1.754726E-1,1.0573544E-1,3.6211521E-3,2.6887734E-4,-3.526197E-2,2.0151564E-1,-8.0782056E-2,4.9110454E-2,-3.8848344E-2,-7.2181947E-3,5.4911423E-2],"categories":[],"categories_nodes":[],"categories_segments":[],"categories_sizes":[],"default_left":[0,0,0,0,0,0,0,0,0,0,0,0,0,0,0,0,0,0,0,0,0,0,0],"id":54,"left_children":[1,3,-1,5,7,9,11,13,-1,15,17,19,-1,21,-1,-1,-1,-1,-1,-1,-1,-1,-1],"loss_changes":[1.00196354E-1,1.2491547E-1,0E0,7.674938E-2,8.758631E-2,1.4557733E-1,1.5477624E0,1.6632224E-2,0E0,1.5756817E-1,1.8361527E0,7.0185745E-1,0E0,3.459844E-2,0E0,0E0,0E0,0E0,0E0,0E0,0E0,0E0,0E0],"parents":[2147483647,0,0,1,1,3,3,4,4,5,5,6,6,7,7,9,9,10,10,11,11,13,13],"right_children":[2,4,-1,6,8,10,12,14,-1,16,18,20,-1,22,-1,-1,-1,-1,-1,-1,-1,-1,-1],"split_conditions":[1.2E1,9E0,-6.6682085E-2,1E0,1E0,1E0,1E0,1E1,7.531324E-2,8E0,1E0,1E0,-1.754726E-1,1E0,3.6211521E-3,2.6887734E-4,-3.526197E-2,2.0151564E-1,-8.0782056E-2,4.9110454E-2,